booster[0]:
0:[V288<1] yes=1,no=2,missing=1
	1:[V3359<1] yes=3,no=4,missing=3
		3:[V4040<1] yes=7,no=8,missing=7
			7:[V365<1] yes=11,no=12,missing=11
				11:[V287<1] yes=15,no=16,missing=15
					15:[V3819<1] yes=17,no=18,missing=17
						17:[V2613<1] yes=21,no=22,missing=21
							21:[V2858<1] yes=25,no=26,missing=25
								25:[V2585<1] yes=29,no=30,missing=29
									29:[V3601<2] yes=31,no=32,missing=31
										31:[V3132<1] yes=33,no=34,missing=33
											33:[V592<1] yes=35,no=36,missing=35
												35:leaf=0.0949748829
												36:leaf=-0.10800001
											34:leaf=-0.114545457
										32:leaf=-0.120000005
									30:leaf=-0.120000005
								26:leaf=-0.124615394
							22:leaf=-0.112500004
						18:leaf=-0.135000005
					16:[V2502<1] yes=19,no=20,missing=19
						19:[V3063<1] yes=23,no=24,missing=23
							23:[V848<1] yes=27,no=28,missing=27
								27:leaf=-0.126666665
								28:leaf=-0
							24:leaf=0.0450000018
						20:leaf=0.0450000018
				12:leaf=-0.137647063
			8:[V1751<1] yes=13,no=14,missing=13
				13:leaf=-0.138461545
				14:leaf=-0
		4:leaf=-0.155172423
	2:[V4282<1] yes=5,no=6,missing=5
		5:[V2107<2] yes=9,no=10,missing=9
			9:leaf=-0.174705878
			10:leaf=-0.0450000018
		6:leaf=-0
booster[1]:
0:[V2150<1] yes=1,no=2,missing=1
	1:[V287<1] yes=3,no=4,missing=3
		3:[V398<1] yes=7,no=8,missing=7
			7:[V3296<1] yes=11,no=12,missing=11
				11:[V813<1] yes=15,no=16,missing=15
					15:[V457<1] yes=19,no=20,missing=19
						19:[V4301<1] yes=21,no=22,missing=21
							21:[V542<1] yes=23,no=24,missing=23
								23:[V2875<1] yes=25,no=26,missing=25
									25:[V2858<1] yes=27,no=28,missing=27
										27:[V2488<1] yes=29,no=30,missing=29
											29:[V4149<1] yes=31,no=32,missing=31
												31:leaf=0.0761326477
												32:leaf=-0.114107378
											30:[V2565<3] yes=33,no=34,missing=33
												33:leaf=0.0131557528
												34:leaf=-0.120395556
										28:leaf=-0.111804634
									26:leaf=-0.11444997
								24:leaf=-0.119108424
							22:leaf=-0.13016504
						20:leaf=-0.128305241
					16:leaf=-0.132941753
				12:leaf=-0.141174793
			8:leaf=-0.127316341
		4:[V74<2] yes=9,no=10,missing=9
			9:[V3888<1] yes=13,no=14,missing=13
				13:[V420<2] yes=17,no=18,missing=17
					17:leaf=-0.15318726
					18:leaf=-0.0318917744
				14:leaf=-0.0191967189
			10:leaf=0.022699343
	2:[V1728<1] yes=5,no=6,missing=5
		5:leaf=-0.151398554
		6:leaf=-0.0578089058
booster[2]:
0:[V2150<1] yes=1,no=2,missing=1
	1:[V646<1] yes=3,no=4,missing=3
		3:[V2093<1] yes=7,no=8,missing=7
			7:[V419<1] yes=9,no=10,missing=9
				9:[V662<1] yes=13,no=14,missing=13
					13:[V3786<1] yes=17,no=18,missing=17
						17:[V2347<1] yes=23,no=24,missing=23
							23:[V1656<1] yes=29,no=30,missing=29
								29:[V1680<1] yes=35,no=36,missing=35
									35:[V2382<1] yes=41,no=42,missing=41
										41:[V3158<1] yes=43,no=44,missing=43
											43:[V465<1] yes=47,no=48,missing=47
												47:leaf=0.0504089557
												48:leaf=-0.109984487
											44:leaf=-0.114658378
										42:[V2907<1] yes=45,no=46,missing=45
											45:[V1396<1] yes=49,no=50,missing=49
												49:leaf=-0.127971828
												50:leaf=-0.00953725725
											46:leaf=0.0159828197
									36:leaf=-0.0992252156
								30:leaf=-0.113217503
							24:leaf=-0.13084887
						18:[V3888<1] yes=25,no=26,missing=25
							25:[V1959<2] yes=31,no=32,missing=31
								31:[V2094<1] yes=37,no=38,missing=37
									37:leaf=-0.114634357
									38:leaf=-0.0192364156
								32:leaf=-0.0144149493
							26:leaf=0.0142071061
					14:[V906<1] yes=19,no=20,missing=19
						19:leaf=0.139642954
						20:leaf=0.0353519097
				10:leaf=-0.126590759
			8:[V2272<1] yes=11,no=12,missing=11
				11:[V2613<1] yes=15,no=16,missing=15
					15:[V1237<1] yes=21,no=22,missing=21
						21:[V3428<1] yes=27,no=28,missing=27
							27:[V4196<1] yes=33,no=34,missing=33
								33:[V924<1] yes=39,no=40,missing=39
									39:leaf=0.146674365
									40:leaf=0.0287152752
								34:leaf=0.0330817997
							28:leaf=-0.0206612945
						22:leaf=-0.0132211456
					16:leaf=-0.0907472968
				12:leaf=-0.0893409923
		4:leaf=-0.144634441
	2:[V1396<1] yes=5,no=6,missing=5
		5:leaf=-0.128989756
		6:leaf=-0.0279284623
booster[3]:
0:[V2060<1] yes=1,no=2,missing=1
	1:[V2951<1] yes=3,no=4,missing=3
		3:[V662<1] yes=7,no=8,missing=7
			7:[V2567<1] yes=13,no=14,missing=13
				13:[V2851<1] yes=19,no=20,missing=19
					19:[V2331<1] yes=21,no=22,missing=21
						21:[V134<1] yes=25,no=26,missing=25
							25:[V628<1] yes=27,no=28,missing=27
								27:[V2537<1] yes=29,no=30,missing=29
									29:[V10<1] yes=31,no=32,missing=31
										31:[V3093<1] yes=33,no=34,missing=33
											33:[V3625<1] yes=35,no=36,missing=35
												35:leaf=-0.0461114757
												36:leaf=0.09375415
											34:leaf=0.107636228
										32:leaf=0.111453183
									30:leaf=0.11488378
								28:leaf=0.102146946
							26:leaf=0.124726065
						22:leaf=0.125802413
					20:[V3442<1] yes=23,no=24,missing=23
						23:leaf=0.110541217
						24:leaf=0.0302102584
				14:leaf=0.130221069
			8:[V3123<2] yes=15,no=16,missing=15
				15:leaf=0.134055465
				16:leaf=0.0192705039
		4:[V1697<1] yes=9,no=10,missing=9
			9:[V3489<1] yes=17,no=18,missing=17
				17:leaf=-0.138773263
				18:leaf=0.0187466964
			10:leaf=0.0343159661
	2:[V674<1] yes=5,no=6,missing=5
		5:[V1606<1] yes=11,no=12,missing=11
			11:leaf=-0.145140201
			12:leaf=-0.0316825919
		6:leaf=0.0018982878
booster[4]:
0:[V2060<1] yes=1,no=2,missing=1
	1:[V567<1] yes=3,no=4,missing=3
		3:[V287<1] yes=7,no=8,missing=7
			7:[V4301<1] yes=11,no=12,missing=11
				11:[V419<1] yes=17,no=18,missing=17
					17:[V3881<1] yes=21,no=22,missing=21
						21:[V398<1] yes=25,no=26,missing=25
							25:[V2858<1] yes=27,no=28,missing=27
								27:[V4065<1] yes=29,no=30,missing=29
									29:[V2488<1] yes=31,no=32,missing=31
										31:[V2176<1] yes=33,no=34,missing=33
											33:[V3091<1] yes=37,no=38,missing=37
												37:leaf=0.0905694664
												38:leaf=-0.0762711167
											34:leaf=-0.0785393715
										32:[V180<1] yes=35,no=36,missing=35
											35:leaf=-0.101892032
											36:leaf=0.048992496
									30:leaf=-0.114821136
								28:leaf=-0.1125594
							26:leaf=-0.105949655
						22:leaf=-0.112406485
					18:leaf=-0.103606239
				12:leaf=-0.129454255
			8:[V1999<1] yes=13,no=14,missing=13
				13:[V2093<1] yes=19,no=20,missing=19
					19:[V1587<2] yes=23,no=24,missing=23
						23:leaf=-0.130444065
						24:leaf=-0.0389372632
					20:leaf=-0.034888722
				14:leaf=0.0985808745
		4:leaf=-0.120881021
	2:[V1491<1] yes=5,no=6,missing=5
		5:[V2302<1] yes=9,no=10,missing=9
			9:[V398<2] yes=15,no=16,missing=15
				15:leaf=-0.140550703
				16:leaf=-0.038234774
			10:leaf=-0.00944121927
		6:leaf=0.0340360627
booster[5]:
0:[V2189<1] yes=1,no=2,missing=1
	1:[V467<1] yes=3,no=4,missing=3
		3:[V2951<1] yes=7,no=8,missing=7
			7:[V2770<1] yes=15,no=16,missing=15
				15:[V2107<2] yes=21,no=22,missing=21
					21:[V2910<1] yes=25,no=26,missing=25
						25:[V2357<1] yes=27,no=28,missing=27
							27:[V2567<1] yes=31,no=32,missing=31
								31:[V293<1] yes=33,no=34,missing=33
									33:[V2169<1] yes=37,no=38,missing=37
										37:[V3059<1] yes=41,no=42,missing=41
											41:[V1841<1] yes=45,no=46,missing=45
												45:leaf=-0.064289175
												46:leaf=0.0623658001
											42:[V1437<1] yes=47,no=48,missing=47
												47:leaf=0.0934130102
												48:leaf=-0.0827930421
										38:[V1866<2] yes=43,no=44,missing=43
											43:[V3123<1] yes=49,no=50,missing=49
												49:leaf=0.100704826
												50:leaf=0.00529155135
											44:leaf=-0.072474055
									34:[V2501<1] yes=39,no=40,missing=39
										39:leaf=0.0993476436
										40:leaf=-0.0117808674
								32:[V476<1] yes=35,no=36,missing=35
									35:leaf=0.0994390622
									36:leaf=-0.0207127314
							28:leaf=0.108115666
						26:[V1547<1] yes=29,no=30,missing=29
							29:leaf=0.0962851495
							30:leaf=0.0132335266
					22:leaf=0.117174581
				16:[V1684<5] yes=23,no=24,missing=23
					23:leaf=0.115969934
					24:leaf=-0.00123771862
			8:[V3270<1] yes=17,no=18,missing=17
				17:leaf=-0.124344401
				18:leaf=-0.01635883
		4:[V790<1] yes=9,no=10,missing=9
			9:leaf=0.117986903
			10:leaf=-0.0151491491
	2:[V2189<4] yes=5,no=6,missing=5
		5:[V969<1] yes=11,no=12,missing=11
			11:[V3236<1] yes=19,no=20,missing=19
				19:leaf=0.127914742
				20:leaf=0.0339974128
			12:leaf=0.0228276085
		6:[V1684<1] yes=13,no=14,missing=13
			13:leaf=0.0578117073
			14:leaf=-0.0592465326
booster[6]:
0:[V2060<1] yes=1,no=2,missing=1
	1:[V3424<1] yes=3,no=4,missing=3
		3:[V813<1] yes=7,no=8,missing=7
			7:[V2382<1] yes=13,no=14,missing=13
				13:[V3923<1] yes=19,no=20,missing=19
					19:[V4117<1] yes=25,no=26,missing=25
						25:[V365<1] yes=29,no=30,missing=29
							29:[V2339<1] yes=33,no=34,missing=33
								33:[V2375<1] yes=37,no=38,missing=37
									37:[V865<1] yes=39,no=40,missing=39
										39:[V464<1] yes=41,no=42,missing=41
											41:[V476<4] yes=43,no=44,missing=43
												43:leaf=0.0697098896
												44:leaf=-0.0879823416
											42:leaf=-0.103771463
										40:leaf=-0.104044363
									38:leaf=-0.108697318
								34:leaf=-0.113817722
							30:leaf=-0.0961991698
						26:[V746<2] yes=31,no=32,missing=31
							31:leaf=-0.116258979
							32:[V2880<1] yes=35,no=36,missing=35
								35:leaf=0.0621275045
								36:leaf=-0.0479034409
					20:leaf=-0.116658323
				14:[V746<2] yes=21,no=22,missing=21
					21:leaf=-0.116521999
					22:leaf=-0.0374619439
			8:[V4000<1] yes=15,no=16,missing=15
				15:leaf=-0.122266755
				16:leaf=-0.0308418218
		4:[V3781<1] yes=9,no=10,missing=9
			9:leaf=-0.12336871
			10:leaf=-0.0403294638
	2:[V2588<1] yes=5,no=6,missing=5
		5:[V1783<1] yes=11,no=12,missing=11
			11:[V3100<1] yes=17,no=18,missing=17
				17:[V1833<1] yes=23,no=24,missing=23
					23:leaf=-0.134652168
					24:[V476<2] yes=27,no=28,missing=27
						27:leaf=-0.000769630715
						28:leaf=-0.0790307447
				18:leaf=-0.0312058162
			12:leaf=0.0241707843
		6:leaf=0.0414605141
booster[7]:
0:[V609<1] yes=1,no=2,missing=1
	1:[V2369<1] yes=3,no=4,missing=3
		3:[V4224<1] yes=7,no=8,missing=7
			7:[V613<1] yes=9,no=10,missing=9
				9:[V564<1] yes=11,no=12,missing=11
					11:[V2311<1] yes=13,no=14,missing=13
						13:[V646<1] yes=17,no=18,missing=17
							17:[V419<1] yes=23,no=24,missing=23
								23:[V3359<1] yes=33,no=34,missing=33
									33:[V3405<1] yes=39,no=40,missing=39
										39:[V299<1] yes=43,no=44,missing=43
											43:[V2858<1] yes=47,no=48,missing=47
												47:leaf=0.013054505
												48:leaf=-0.107172266
											44:[V1190<1] yes=49,no=50,missing=49
												49:leaf=-0.0157152079
												50:leaf=-0.125236511
										40:leaf=-0.115375496
									34:leaf=-0.102519117
								24:[V2501<1] yes=35,no=36,missing=35
									35:leaf=-0.11285188
									36:leaf=-0.0295058675
							18:[V3218<1] yes=25,no=26,missing=25
								25:leaf=-0.120729744
								26:leaf=-0.0349036828
						14:[V1751<1] yes=19,no=20,missing=19
							19:[V1682<1] yes=27,no=28,missing=27
								27:leaf=-0.132414237
								28:leaf=-0.0394983999
							20:leaf=-0.0191855598
					12:[V3359<1] yes=15,no=16,missing=15
						15:[V206<1] yes=21,no=22,missing=21
							21:[V2411<1] yes=29,no=30,missing=29
								29:[V3085<1] yes=37,no=38,missing=37
									37:[V3063<1] yes=41,no=42,missing=41
										41:[V1833<1] yes=45,no=46,missing=45
											45:leaf=0.127567679
											46:leaf=0.031545721
										42:leaf=-0.0121148545
									38:leaf=-0.0165993292
								30:leaf=-0.0481083617
							22:[V2972<1] yes=31,no=32,missing=31
								31:leaf=-0.0173654016
								32:leaf=-0.0911199227
						16:leaf=-0.0990389735
				10:leaf=0.113905042
			8:leaf=0.118609659
		4:leaf=0.122259811
	2:[V3276<1] yes=5,no=6,missing=5
		5:leaf=-0.122823089
		6:leaf=-0.0276348405
booster[8]:
0:[V2150<1] yes=1,no=2,missing=1
	1:[V398<1] yes=3,no=4,missing=3
		3:[V3359<1] yes=7,no=8,missing=7
			7:[V3554<1] yes=11,no=12,missing=11
				11:[V219<2] yes=13,no=14,missing=13
					13:[V4224<1] yes=17,no=18,missing=17
						17:[V1599<1] yes=23,no=24,missing=23
							23:[V3231<1] yes=25,no=26,missing=25
								25:[V2189<1] yes=27,no=28,missing=27
									27:[V1264<2] yes=31,no=32,missing=31
										31:[V2311<1] yes=37,no=38,missing=37
											37:[V3781<2] yes=45,no=46,missing=45
												45:leaf=0.0338683911
												46:leaf=-0.0943772197
											38:[V824<1] yes=47,no=48,missing=47
												47:leaf=-0.0932877585
												48:leaf=-0.00430078944
										32:[V134<1] yes=39,no=40,missing=39
											39:[V2567<1] yes=49,no=50,missing=49
												49:leaf=-0.0627550185
												50:leaf=0.0670683682
											40:leaf=0.0916583613
									28:[V2311<1] yes=33,no=34,missing=33
										33:leaf=0.0970826671
										34:leaf=-0.00597360171
								26:[V1926<1] yes=29,no=30,missing=29
									29:[V1264<3] yes=35,no=36,missing=35
										35:[V2094<1] yes=41,no=42,missing=41
											41:leaf=-0.134864539
											42:leaf=-0.0210177936
										36:[V3381<1] yes=43,no=44,missing=43
											43:leaf=0.0437213928
											44:leaf=-0.0697830915
									30:leaf=0.0440291353
							24:leaf=0.102611579
						18:leaf=0.110907674
					14:[V3682<1] yes=19,no=20,missing=19
						19:leaf=0.0976098999
						20:leaf=0.00564541854
				12:[V2367<2] yes=15,no=16,missing=15
					15:[V2189<1] yes=21,no=22,missing=21
						21:leaf=0.118087344
						22:leaf=0.00878614094
					16:leaf=0.0146823889
			8:leaf=-0.115660079
		4:[V3620<1] yes=9,no=10,missing=9
			9:leaf=-0.123688176
			10:leaf=-0.0224911068
	2:[V1670<1] yes=5,no=6,missing=5
		5:leaf=-0.116793349
		6:leaf=-0.0240352061
booster[9]:
0:[V288<1] yes=1,no=2,missing=1
	1:[V2060<1] yes=3,no=4,missing=3
		3:[V457<1] yes=7,no=8,missing=7
			7:[V3405<1] yes=15,no=16,missing=15
				15:[V4252<1] yes=21,no=22,missing=21
					21:[V3091<1] yes=25,no=26,missing=25
						25:[V3367<1] yes=27,no=28,missing=27
							27:[V3984<1] yes=29,no=30,missing=29
								29:[V2347<1] yes=33,no=34,missing=33
									33:[V1888<1] yes=35,no=36,missing=35
										35:[V2733<1] yes=39,no=40,missing=39
											39:[V3436<1] yes=41,no=42,missing=41
												41:leaf=0.0730655417
												42:leaf=-0.0755965486
											40:leaf=-0.0830461606
										36:leaf=-0.0861743093
									34:[V865<1] yes=37,no=38,missing=37
										37:leaf=-0.0188058764
										38:leaf=-0.0825787261
								30:leaf=-0.100429133
							28:[V746<1] yes=31,no=32,missing=31
								31:leaf=-0.101920843
								32:leaf=-0.0072300951
						26:leaf=-0.109796822
					22:leaf=-0.111216828
				16:leaf=-0.110635825
			8:leaf=-0.111502059
		4:[V2284<1] yes=9,no=10,missing=9
			9:[V398<2] yes=17,no=18,missing=17
				17:[V298<1] yes=23,no=24,missing=23
					23:leaf=-0.121850409
					24:leaf=-0.0254038014
				18:leaf=0.0361752026
			10:leaf=0.0669437423
	2:[V274<1] yes=5,no=6,missing=5
		5:[V3053<1] yes=11,no=12,missing=11
			11:[V2249<1] yes=19,no=20,missing=19
				19:leaf=-0.12930952
				20:leaf=-0.0342124663
			12:leaf=-0.0335965939
		6:[V746<2] yes=13,no=14,missing=13
			13:leaf=-0.0520492643
			14:leaf=0.0667002052
booster[10]:
0:[V2150<1] yes=1,no=2,missing=1
	1:[V287<1] yes=3,no=4,missing=3
		3:[V2093<1] yes=7,no=8,missing=7
			7:[V1723<1] yes=13,no=14,missing=13
				13:[V2295<1] yes=21,no=22,missing=21
					21:[V1481<1] yes=31,no=32,missing=31
						31:[V690<1] yes=39,no=40,missing=39
							39:[V1264<2] yes=45,no=46,missing=45
								45:[V4299<1] yes=51,no=52,missing=51
									51:[V3090<1] yes=59,no=60,missing=59
										59:[V1594<1] yes=65,no=66,missing=65
											65:[V1039<1] yes=69,no=70,missing=69
												69:leaf=0.0554906577
												70:leaf=-0.039660491
											66:leaf=-0.0563683957
										60:leaf=-0.0776603594
									52:[V675<1] yes=61,no=62,missing=61
										61:leaf=-0.00759814912
										62:leaf=-0.0977752358
								46:[V4027<1] yes=53,no=54,missing=53
									53:[V373<1] yes=63,no=64,missing=63
										63:[V1057<1] yes=67,no=68,missing=67
											67:[V1520<1] yes=71,no=72,missing=71
												71:leaf=-0.0670486763
												72:leaf=0.0573581681
											68:leaf=0.0806989372
										64:leaf=0.0850441977
									54:leaf=0.0934900418
							40:[V3270<1] yes=47,no=48,missing=47
								47:[V3680<1] yes=55,no=56,missing=55
									55:leaf=-0.107342586
									56:leaf=-0.0257062465
								48:[V198<1] yes=57,no=58,missing=57
									57:leaf=-0.0424713679
									58:leaf=0.0563567691
						32:leaf=0.0784283876
					22:leaf=0.088825725
				14:[V1449<1] yes=23,no=24,missing=23
					23:[V1396<1] yes=33,no=34,missing=33
						33:leaf=0.115955278
						34:leaf=0.0276960861
					24:leaf=-0.0108631551
			8:[V969<1] yes=15,no=16,missing=15
				15:[V1373<3] yes=25,no=26,missing=25
					25:[V2078<1] yes=35,no=36,missing=35
						35:[V1380<1] yes=41,no=42,missing=41
							41:[V2776<1] yes=49,no=50,missing=49
								49:leaf=0.114109665
								50:leaf=0.0385336503
							42:leaf=0.0158653371
						36:leaf=-0.00139468163
					26:leaf=-0.0419925079
				16:leaf=-0.0541965291
		4:[V2770<1] yes=9,no=10,missing=9
			9:[V675<2] yes=17,no=18,missing=17
				17:[V3431<1] yes=27,no=28,missing=27
					27:[V1847<1] yes=37,no=38,missing=37
						37:[V4266<1] yes=43,no=44,missing=43
							43:leaf=-0.122288264
							44:leaf=-0.0346661434
						38:leaf=-0.0287648924
					28:leaf=-0.0379767455
				18:[V287<4] yes=29,no=30,missing=29
					29:leaf=0.0366152525
					30:leaf=-0.0834954455
			10:leaf=0.0288904682
	2:[V258<2] yes=5,no=6,missing=5
		5:[V705<1] yes=11,no=12,missing=11
			11:[V808<2] yes=19,no=20,missing=19
				19:leaf=-0.112352259
				20:leaf=-0.0347918756
			12:leaf=-0.0219170768
		6:leaf=-0.0166559163
booster[11]:
0:[V287<1] yes=1,no=2,missing=1
	1:[V609<1] yes=3,no=4,missing=3
		3:[V2060<1] yes=7,no=8,missing=7
			7:[V3405<1] yes=13,no=14,missing=13
				13:[V70<1] yes=19,no=20,missing=19
					19:[V2742<1] yes=25,no=26,missing=25
						25:[V365<1] yes=27,no=28,missing=27
							27:[V2224<1] yes=31,no=32,missing=31
								31:[V375<1] yes=33,no=34,missing=33
									33:[V4040<1] yes=35,no=36,missing=35
										35:[V2424<1] yes=37,no=38,missing=37
											37:[V3091<1] yes=41,no=42,missing=41
												41:leaf=0.0671923682
												42:leaf=-0.0833229199
											38:leaf=-0.0981575325
										36:[V1264<4] yes=39,no=40,missing=39
											39:leaf=-0.0670875534
											40:leaf=-0.00437442493
									34:leaf=-0.0950798616
								32:leaf=-0.114505291
							28:leaf=-0.10168156
						26:[V4299<1] yes=29,no=30,missing=29
							29:leaf=-0.019531101
							30:leaf=-0.0985069424
					20:leaf=-0.108153723
				14:leaf=-0.103787459
			8:[V873<1] yes=15,no=16,missing=15
				15:[V3528<1] yes=21,no=22,missing=21
					21:leaf=-0.106992088
					22:leaf=-0.0156852808
				16:leaf=0.0207458846
		4:[V3888<1] yes=9,no=10,missing=9
			9:leaf=-0.109304741
			10:leaf=-0.0245429892
	2:[V1999<1] yes=5,no=6,missing=5
		5:[V622<1] yes=11,no=12,missing=11
			11:[V3814<1] yes=17,no=18,missing=17
				17:[V3781<1] yes=23,no=24,missing=23
					23:leaf=-0.121009313
					24:leaf=-0.0334991775
				18:leaf=-0.0112332907
			12:leaf=-0.00553768734
		6:leaf=0.0571026988
booster[12]:
0:[V288<1] yes=1,no=2,missing=1
	1:[V4252<1] yes=3,no=4,missing=3
		3:[V2150<1] yes=7,no=8,missing=7
			7:[V3359<1] yes=11,no=12,missing=11
				11:[V365<1] yes=17,no=18,missing=17
					17:[V4065<1] yes=23,no=24,missing=23
						23:[V138<1] yes=27,no=28,missing=27
							27:[V764<1] yes=31,no=32,missing=31
								31:[V3337<1] yes=35,no=36,missing=35
									35:[V1656<1] yes=37,no=38,missing=37
										37:[V3122<1] yes=39,no=40,missing=39
											39:[V1219<1] yes=41,no=42,missing=41
												41:leaf=0.0688815191
												42:leaf=-0.0892195255
											40:leaf=-0.0795354769
										38:leaf=-0.077782914
									36:leaf=-0.0688656718
								32:leaf=-0.109310322
							28:[V2565<1] yes=33,no=34,missing=33
								33:leaf=0.00406352011
								34:leaf=-0.103351168
						24:leaf=-0.110039957
					18:leaf=-0.0951053202
				12:leaf=-0.0913860053
			8:[V4074<1] yes=13,no=14,missing=13
				13:[V3273<1] yes=19,no=20,missing=19
					19:leaf=-0.0939543843
					20:leaf=0.00597679801
				14:leaf=0.0150863761
		4:leaf=-0.111583926
	2:[V3411<1] yes=5,no=6,missing=5
		5:[V4282<1] yes=9,no=10,missing=9
			9:[V838<1] yes=15,no=16,missing=15
				15:[V3095<1] yes=21,no=22,missing=21
					21:[V3395<1] yes=25,no=26,missing=25
						25:[V907<1] yes=29,no=30,missing=29
							29:leaf=-0.12407057
							30:leaf=-0.0351361558
						26:leaf=-0.0381666161
					22:leaf=-0.0275459904
				16:leaf=-0.0105712274
			10:leaf=0.00334554585
		6:leaf=0.0379707441
booster[13]:
0:[V288<1] yes=1,no=2,missing=1
	1:[V398<1] yes=3,no=4,missing=3
		3:[V3359<1] yes=7,no=8,missing=7
			7:[V287<1] yes=13,no=14,missing=13
				13:[V3999<1] yes=19,no=20,missing=19
					19:[V746<2] yes=25,no=26,missing=25
						25:[V4040<1] yes=29,no=30,missing=29
							29:[V3120<1] yes=35,no=36,missing=35
								35:[V2176<1] yes=39,no=40,missing=39
									39:[V3600<1] yes=43,no=44,missing=43
										43:[V2302<1] yes=49,no=50,missing=49
											49:[V981<1] yes=55,no=56,missing=55
												55:leaf=0.0320079513
												56:leaf=-0.0656884685
											50:[V1512<1] yes=57,no=58,missing=57
												57:leaf=0.109558053
												58:leaf=0.0101359263
										44:[V313<1] yes=51,no=52,missing=51
											51:leaf=-0.0787839517
											52:leaf=-0.0116026439
									40:leaf=-0.067855671
								36:leaf=-0.108927719
							30:leaf=-0.0710899383
						26:[V464<1] yes=31,no=32,missing=31
							31:[V1886<1] yes=37,no=38,missing=37
								37:[V1370<1] yes=41,no=42,missing=41
									41:[V812<1] yes=45,no=46,missing=45
										45:[V3609<1] yes=53,no=54,missing=53
											53:[V1269<1] yes=59,no=60,missing=59
												59:leaf=0.100493923
												60:leaf=-0.00234023063
											54:leaf=-0.0114878966
										46:leaf=-0.023642201
									42:[V4270<1] yes=47,no=48,missing=47
										47:leaf=-0.0548368283
										48:leaf=0.0664838254
								38:leaf=-0.0556433089
							32:leaf=-0.0813504159
					20:leaf=-0.0957289413
				14:[V2681<1] yes=21,no=22,missing=21
					21:[V3232<1] yes=27,no=28,missing=27
						27:leaf=-0.099573262
						28:[V3895<1] yes=33,no=34,missing=33
							33:leaf=0.0105665727
							34:leaf=-0.032562349
					22:leaf=0.0473897532
			8:leaf=-0.0988569185
		4:[V3528<1] yes=9,no=10,missing=9
			9:[V746<1] yes=15,no=16,missing=15
				15:leaf=-0.107360706
				16:leaf=-0.0237640999
			10:leaf=-0.0259903576
	2:[V2760<1] yes=5,no=6,missing=5
		5:[V3063<2] yes=11,no=12,missing=11
			11:[V1032<2] yes=17,no=18,missing=17
				17:[V3608<1] yes=23,no=24,missing=23
					23:leaf=-0.114529878
					24:leaf=-0.0317834914
				18:leaf=-0.0311327707
			12:leaf=0.013645919
		6:leaf=0.0185366757
booster[14]:
0:[V2851<1] yes=1,no=2,missing=1
	1:[V2060<1] yes=3,no=4,missing=3
		3:[V613<1] yes=7,no=8,missing=7
			7:[V3692<1] yes=11,no=12,missing=11
				11:[V180<1] yes=15,no=16,missing=15
					15:[V4224<1] yes=19,no=20,missing=19
						19:[V543<2] yes=23,no=24,missing=23
							23:[V662<1] yes=27,no=28,missing=27
								27:[V3625<1] yes=29,no=30,missing=29
									29:[V4128<3] yes=33,no=34,missing=33
										33:[V746<2] yes=37,no=38,missing=37
											37:[V3511<1] yes=41,no=42,missing=41
												41:leaf=-0.071436733
												42:leaf=0.0721685737
											38:[V3845<1] yes=43,no=44,missing=43
												43:leaf=-0.00479312195
												44:leaf=-0.0942864865
										34:[V3992<1] yes=39,no=40,missing=39
											39:leaf=0.0948220044
											40:leaf=-0.0179642718
									30:leaf=0.0856485516
								28:[V824<1] yes=31,no=32,missing=31
									31:[V392<1] yes=35,no=36,missing=35
										35:leaf=0.0848531201
										36:leaf=0.00582693098
									32:leaf=-0.00836700853
							24:leaf=0.103175163
						20:leaf=0.0915688574
					16:[V2146<1] yes=21,no=22,missing=21
						21:[V2024<1] yes=25,no=26,missing=25
							25:leaf=0.105608955
							26:leaf=0.0134266065
						22:leaf=-0.0273792017
				12:[V3528<1] yes=17,no=18,missing=17
					17:leaf=0.103949189
					18:leaf=-0.0220288616
			8:leaf=0.0972090736
		4:[V2482<1] yes=9,no=10,missing=9
			9:[V1889<1] yes=13,no=14,missing=13
				13:leaf=-0.113296792
				14:leaf=-0.0230734888
			10:leaf=0.0214446671
	2:[V760<1] yes=5,no=6,missing=5
		5:leaf=0.0992148072
		6:leaf=0.0224873591
booster[15]:
0:[V2060<1] yes=1,no=2,missing=1
	1:[V662<1] yes=3,no=4,missing=3
		3:[V2951<1] yes=7,no=8,missing=7
			7:[V3881<1] yes=13,no=14,missing=13
				13:[V746<2] yes=17,no=18,missing=17
					17:[V2770<1] yes=21,no=22,missing=21
						21:[V1723<1] yes=25,no=26,missing=25
							25:[V3442<1] yes=33,no=34,missing=33
								33:[V2565<1] yes=39,no=40,missing=39
									39:[V386<1] yes=43,no=44,missing=43
										43:[V3016<1] yes=49,no=50,missing=49
											49:[V3034<1] yes=55,no=56,missing=55
												55:leaf=-0.0357830599
												56:leaf=0.0665234774
											50:leaf=0.0764783397
										44:leaf=0.0915061161
									40:[V2565<15] yes=45,no=46,missing=45
										45:[V3817<1] yes=51,no=52,missing=51
											51:[V258<1] yes=57,no=58,missing=57
												57:leaf=-0.0244564153
												58:leaf=-0.111377619
											52:leaf=0.00887328852
										46:leaf=0.022907922
								34:leaf=0.0928667933
							26:[V2314<1] yes=35,no=36,missing=35
								35:leaf=0.0802193806
								36:leaf=-0.0288282167
						22:[V2266<1] yes=27,no=28,missing=27
							27:leaf=0.0872537643
							28:leaf=0.00813329872
					18:[V3321<1] yes=23,no=24,missing=23
						23:[V1886<1] yes=29,no=30,missing=29
							29:[V168<1] yes=37,no=38,missing=37
								37:[V3090<1] yes=41,no=42,missing=41
									41:[V391<1] yes=47,no=48,missing=47
										47:[V296<1] yes=53,no=54,missing=53
											53:[V47<1] yes=59,no=60,missing=59
												59:leaf=0.105401829
												60:leaf=-0.0183082186
											54:leaf=-0.00547690457
										48:leaf=-0.0090166349
									42:leaf=-0.0420105346
								38:leaf=-0.0425402485
							30:leaf=-0.100352518
						24:[V3381<1] yes=31,no=32,missing=31
							31:leaf=-0.106745452
							32:leaf=-0.0302134044
				14:[V848<1] yes=19,no=20,missing=19
					19:leaf=-0.0971068367
					20:leaf=-0.0251104161
			8:[V3109<1] yes=15,no=16,missing=15
				15:leaf=-0.100448497
				16:leaf=0.0144689549
		4:[V2971<1] yes=9,no=10,missing=9
			9:leaf=0.103553444
			10:leaf=0.0195785817
	2:[V3008<1] yes=5,no=6,missing=5
		5:[V1446<3] yes=11,no=12,missing=11
			11:leaf=-0.109731823
			12:leaf=0.000141915618
		6:leaf=0.036016196
booster[16]:
0:[V288<1] yes=1,no=2,missing=1
	1:[V457<1] yes=3,no=4,missing=3
		3:[V2375<1] yes=7,no=8,missing=7
			7:[V50<1] yes=11,no=12,missing=11
				11:[V2686<1] yes=15,no=16,missing=15
					15:[V3256<1] yes=21,no=22,missing=21
						21:[V2875<1] yes=25,no=26,missing=25
							25:[V4192<1] yes=29,no=30,missing=29
								29:[V2093<1] yes=31,no=32,missing=31
									31:[V2969<1] yes=35,no=36,missing=35
										35:[V3550<1] yes=41,no=42,missing=41
											41:[V889<1] yes=49,no=50,missing=49
												49:leaf=0.0206879433
												50:leaf=-0.0862833634
											42:leaf=0.0947731435
										36:[V1264<2] yes=43,no=44,missing=43
											43:[V4270<1] yes=51,no=52,missing=51
												51:leaf=0.0319116078
												52:leaf=-0.051530607
											44:leaf=-0.111391619
									32:[V3167<1] yes=37,no=38,missing=37
										37:[V677<1] yes=45,no=46,missing=45
											45:leaf=0.103200026
											46:leaf=0.00968295895
										38:leaf=0.00207964797
								30:[V2272<1] yes=33,no=34,missing=33
									33:[V2366<1] yes=39,no=40,missing=39
										39:[V3321<1] yes=47,no=48,missing=47
											47:[V398<1] yes=53,no=54,missing=53
												53:leaf=0.112706706
												54:leaf=0.00128582749
											48:leaf=0.00109441846
										40:leaf=-0.0173720811
									34:leaf=-0.036820069
							26:leaf=-0.0908277333
						22:[V3167<1] yes=27,no=28,missing=27
							27:leaf=-0.116223708
							28:leaf=0.00812971778
					16:leaf=-0.104385354
				12:leaf=-0.0919204578
			8:leaf=-0.0909356475
		4:leaf=-0.093265146
	2:[V3411<1] yes=5,no=6,missing=5
		5:[V1283<1] yes=9,no=10,missing=9
			9:[V1441<1] yes=13,no=14,missing=13
				13:[V2093<1] yes=17,no=18,missing=17
					17:[V3520<1] yes=23,no=24,missing=23
						23:leaf=-0.10982503
						24:leaf=-0.0282453485
					18:leaf=-0.0311911087
				14:[V268<1] yes=19,no=20,missing=19
					19:leaf=0.0180922933
					20:leaf=-0.0709874183
			10:leaf=0.0407311134
		6:leaf=0.0390933193
booster[17]:
0:[V2060<1] yes=1,no=2,missing=1
	1:[V2150<2] yes=3,no=4,missing=3
		3:[V2425<1] yes=7,no=8,missing=7
			7:[V4252<1] yes=11,no=12,missing=11
				11:[V1780<1] yes=17,no=18,missing=17
					17:[V172<1] yes=19,no=20,missing=19
						19:[V2311<1] yes=21,no=22,missing=21
							21:[V2962<1] yes=23,no=24,missing=23
								23:[V813<1] yes=27,no=28,missing=27
									27:[V70<1] yes=35,no=36,missing=35
										35:[V764<1] yes=39,no=40,missing=39
											39:[V3419<1] yes=41,no=42,missing=41
												41:leaf=0.0539576411
												42:leaf=-0.073292084
											40:leaf=-0.0683893859
										36:leaf=-0.0769483
									28:[V690<1] yes=37,no=38,missing=37
										37:leaf=-0.0814951062
										38:leaf=0.0116530601
								24:[V3167<2] yes=29,no=30,missing=29
									29:leaf=-0.0997507274
									30:leaf=0.0165293366
							22:[V1547<1] yes=25,no=26,missing=25
								25:[V624<1] yes=31,no=32,missing=31
									31:leaf=-0.0874804035
									32:leaf=6.21318468e-05
								26:[V3167<1] yes=33,no=34,missing=33
									33:leaf=0.0684602633
									34:leaf=-0.0388492793
						20:leaf=-0.0707813501
					18:leaf=-0.0939034745
				12:leaf=-0.0839687958
			8:[V3083<1] yes=13,no=14,missing=13
				13:leaf=-0.11060793
				14:leaf=-0.0301740002
		4:leaf=-0.0854899734
	2:[V1783<1] yes=5,no=6,missing=5
		5:[V990<1] yes=9,no=10,missing=9
			9:[V822<1] yes=15,no=16,missing=15
				15:leaf=-0.10529644
				16:leaf=-0.00334305572
			10:leaf=0.014631778
		6:leaf=0.0327267237
booster[18]:
0:[V564<1] yes=1,no=2,missing=1
	1:[V287<1] yes=3,no=4,missing=3
		3:[V2150<1] yes=7,no=8,missing=7
			7:[V2094<1] yes=15,no=16,missing=15
				15:[V613<1] yes=23,no=24,missing=23
					23:[V546<1] yes=31,no=32,missing=31
						31:[V3093<1] yes=35,no=36,missing=35
							35:[V3350<1] yes=37,no=38,missing=37
								37:[V2459<1] yes=39,no=40,missing=39
									39:[V134<1] yes=41,no=42,missing=41
										41:[V3770<1] yes=43,no=44,missing=43
											43:[V995<1] yes=45,no=46,missing=45
												45:leaf=-0.042809885
												46:leaf=0.0389216207
											44:leaf=0.0595251583
										42:leaf=0.0720028058
									40:leaf=0.0741593242
								38:leaf=0.0835629776
							36:leaf=0.0763214678
						32:leaf=0.0797219947
					24:leaf=0.0874959826
				16:[V1513<1] yes=25,no=26,missing=25
					25:leaf=0.0887414068
					26:leaf=0.0264594108
			8:[V4295<3] yes=17,no=18,missing=17
				17:[V1109<1] yes=27,no=28,missing=27
					27:leaf=-0.0920196995
					28:leaf=-0.0250581466
				18:leaf=0.00835628342
		4:[V1180<1] yes=9,no=10,missing=9
			9:leaf=-0.105280116
			10:leaf=-0.0242334343
	2:[V3682<1] yes=5,no=6,missing=5
		5:[V4266<1] yes=11,no=12,missing=11
			11:[V41<1] yes=19,no=20,missing=19
				19:[V2150<1] yes=29,no=30,missing=29
					29:[V1446<2] yes=33,no=34,missing=33
						33:leaf=0.0879110694
						34:leaf=0.0219309293
					30:leaf=0.015706744
				20:leaf=0.00551796891
			12:leaf=-0.0352481827
		6:[V1557<1] yes=13,no=14,missing=13
			13:[V2302<1] yes=21,no=22,missing=21
				21:leaf=-0.0818316489
				22:leaf=0.00298638199
			14:leaf=0.0633371845
booster[19]:
0:[V287<1] yes=1,no=2,missing=1
	1:[V564<1] yes=3,no=4,missing=3
		3:[V2155<1] yes=7,no=8,missing=7
			7:[V3554<1] yes=13,no=14,missing=13
				13:[V413<1] yes=21,no=22,missing=21
					21:[V4162<1] yes=31,no=32,missing=31
						31:[V403<1] yes=39,no=40,missing=39
							39:[V988<1] yes=41,no=42,missing=41
								41:[V4295<4] yes=43,no=44,missing=43
									43:[V2459<1] yes=45,no=46,missing=45
										45:[V3769<1] yes=47,no=48,missing=47
											47:[V4027<1] yes=49,no=50,missing=49
												49:leaf=-0.0498296618
												50:leaf=0.0662417188
											48:leaf=0.0536127053
										46:leaf=0.0641612932
									44:leaf=0.0619973317
								42:leaf=0.0638533756
							40:leaf=0.0813453645
						32:leaf=0.0743311569
					22:[V3894<1] yes=33,no=34,missing=33
						33:leaf=0.0705957636
						34:leaf=-0.00302400929
				14:[V2070<1] yes=23,no=24,missing=23
					23:leaf=0.0692059472
					24:leaf=0.00137225457
			8:leaf=0.0860117599
		4:[V2617<1] yes=9,no=10,missing=9
			9:[V2307<1] yes=15,no=16,missing=15
				15:[V2060<1] yes=25,no=26,missing=25
					25:[V1684<4] yes=35,no=36,missing=35
						35:leaf=0.104580924
						36:leaf=0.0111662643
					26:leaf=0.00461164536
				16:leaf=-0.00371742574
			10:[V313<1] yes=17,no=18,missing=17
				17:[V1405<1] yes=27,no=28,missing=27
					27:leaf=-0.0114901885
					28:leaf=-0.0765084028
				18:leaf=0.0687814727
	2:[V2573<1] yes=5,no=6,missing=5
		5:[V3674<1] yes=11,no=12,missing=11
			11:[V3794<1] yes=19,no=20,missing=19
				19:[V2681<1] yes=29,no=30,missing=29
					29:[V198<1] yes=37,no=38,missing=37
						37:leaf=-0.103651449
						38:leaf=-0.0252777152
					30:leaf=-0.0247069243
				20:leaf=-0.00300605735
			12:leaf=-0.00445781182
		6:leaf=0.0492977202
booster[20]:
0:[V288<1] yes=1,no=2,missing=1
	1:[V3091<1] yes=3,no=4,missing=3
		3:[V2060<1] yes=7,no=8,missing=7
			7:[V2613<1] yes=11,no=12,missing=11
				11:[V457<1] yes=17,no=18,missing=17
					17:[V4252<1] yes=23,no=24,missing=23
						23:[V1779<1] yes=27,no=28,missing=27
							27:[V146<1] yes=31,no=32,missing=31
								31:[V419<1] yes=33,no=34,missing=33
									33:[V360<1] yes=35,no=36,missing=35
										35:[V2230<1] yes=37,no=38,missing=37
											37:[V3256<1] yes=41,no=42,missing=41
												41:leaf=0.056455981
												42:leaf=-0.0615190677
											38:leaf=-0.0843375325
										36:[V2431<1] yes=39,no=40,missing=39
											39:leaf=-0.0916452035
											40:[V360<2] yes=43,no=44,missing=43
												43:leaf=0.071843639
												44:leaf=-0.0144550847
									34:leaf=-0.0629135668
								32:leaf=-0.0732761398
							28:leaf=-0.0836148039
						24:[V2852<2] yes=29,no=30,missing=29
							29:leaf=-0.0771392062
							30:leaf=-0.0181325711
					18:leaf=-0.0825251937
				12:leaf=-0.0970291868
			8:[V1606<1] yes=13,no=14,missing=13
				13:[V3681<1] yes=19,no=20,missing=19
					19:[V3359<2] yes=25,no=26,missing=25
						25:leaf=-0.0979881883
						26:leaf=-0.0288547948
					20:leaf=0.0161757357
				14:leaf=0.0366408266
		4:leaf=-0.10282933
	2:[V2760<1] yes=5,no=6,missing=5
		5:[V3063<2] yes=9,no=10,missing=9
			9:[V75<1] yes=15,no=16,missing=15
				15:leaf=-0.107347481
				16:[V1684<1] yes=21,no=22,missing=21
					21:leaf=-0.000800486305
					22:leaf=-0.0617050566
			10:leaf=0.0448329896
		6:leaf=0.0408490859
booster[21]:
0:[V288<1] yes=1,no=2,missing=1
	1:[V3027<1] yes=3,no=4,missing=3
		3:[V2770<1] yes=7,no=8,missing=7
			7:[V2840<1] yes=11,no=12,missing=11
				11:[V4301<1] yes=17,no=18,missing=17
					17:[V413<1] yes=21,no=22,missing=21
						21:[V457<1] yes=23,no=24,missing=23
							23:[V746<1] yes=27,no=28,missing=27
								27:[V3038<1] yes=29,no=30,missing=29
									29:[V1370<1] yes=33,no=34,missing=33
										33:[V2708<4] yes=39,no=40,missing=39
											39:[V274<1] yes=43,no=44,missing=43
												43:leaf=-0.0226285029
												44:leaf=0.0801330656
											40:leaf=0.082348682
										34:leaf=0.0945066959
									30:[V4270<2] yes=35,no=36,missing=35
										35:leaf=-0.0872050524
										36:leaf=-0.00640953286
								28:[V2973<1] yes=31,no=32,missing=31
									31:[V375<1] yes=37,no=38,missing=37
										37:[V1006<1] yes=41,no=42,missing=41
											41:[V3182<1] yes=45,no=46,missing=45
												45:leaf=0.0627961606
												46:leaf=-0.0589562133
											42:leaf=-0.0571255572
										38:leaf=-0.0684300661
									32:leaf=-0.0502636507
							24:leaf=-0.0836349353
						22:[V690<2] yes=25,no=26,missing=25
							25:leaf=0.0905924514
							26:leaf=0.0253898669
					18:leaf=-0.0891044587
				12:[V3992<1] yes=19,no=20,missing=19
					19:leaf=-0.0921280459
					20:leaf=-0.00985191762
			8:[V1899<1] yes=13,no=14,missing=13
				13:leaf=0.105864726
				14:leaf=0.0212726723
		4:leaf=-0.116184749
	2:[V3095<1] yes=5,no=6,missing=5
		5:[V3247<1] yes=9,no=10,missing=9
			9:[V543<1] yes=15,no=16,missing=15
				15:leaf=-0.105544679
				16:leaf=0.0118118096
			10:leaf=0.0176236313
		6:leaf=0.0196444038
booster[22]:
0:[V2742<1] yes=1,no=2,missing=1
	1:[V609<1] yes=3,no=4,missing=3
		3:[V4252<1] yes=5,no=6,missing=5
			5:[V3999<1] yes=9,no=10,missing=9
				9:[V969<1] yes=11,no=12,missing=11
					11:[V465<1] yes=15,no=16,missing=15
						15:[V2162<1] yes=19,no=20,missing=19
							19:[V882<1] yes=21,no=22,missing=21
								21:[V441<1] yes=23,no=24,missing=23
									23:[V1886<1] yes=27,no=28,missing=27
										27:[V1001<1] yes=29,no=30,missing=29
											29:[V3381<1] yes=31,no=32,missing=31
												31:leaf=0.019107746
												32:leaf=0.0663921759
											30:[V746<1] yes=33,no=34,missing=33
												33:leaf=-0.0702806935
												34:leaf=0.027149342
										28:leaf=-0.075967811
									24:leaf=-0.0952499583
								22:[V1264<2] yes=25,no=26,missing=25
									25:leaf=-0.00991959218
									26:leaf=-0.0859500319
							20:leaf=-0.0871242508
						16:leaf=-0.0848587602
					12:[V1180<1] yes=17,no=18,missing=17
						17:leaf=-0.107613198
						18:leaf=0.00117778708
				10:[V675<1] yes=13,no=14,missing=13
					13:leaf=-0.0868905112
					14:leaf=-0.0192571208
			6:leaf=-0.0884617493
		4:[V1180<1] yes=7,no=8,missing=7
			7:leaf=-0.0922693685
			8:leaf=-0.00750067458
	2:leaf=-0.0924950168
booster[23]:
0:[V467<1] yes=1,no=2,missing=1
	1:[V2189<1] yes=3,no=4,missing=3
		3:[V675<2] yes=7,no=8,missing=7
			7:[V3165<1] yes=13,no=14,missing=13
				13:[V3786<1] yes=17,no=18,missing=17
					17:[V2150<1] yes=21,no=22,missing=21
						21:[V2756<1] yes=27,no=28,missing=27
							27:[V386<1] yes=37,no=38,missing=37
								37:[V392<1] yes=45,no=46,missing=45
									45:[V2411<1] yes=49,no=50,missing=49
										49:[V2078<1] yes=55,no=56,missing=55
											55:[V646<1] yes=59,no=60,missing=59
												59:leaf=0.0146470796
												60:leaf=-0.0718272328
											56:[V1713<1] yes=61,no=62,missing=61
												61:leaf=-0.0194702707
												62:leaf=-0.0933618397
										50:leaf=-0.087311022
									46:[V2359<1] yes=51,no=52,missing=51
										51:[V313<1] yes=57,no=58,missing=57
											57:[V2302<1] yes=63,no=64,missing=63
												63:leaf=-0.082515426
												64:leaf=0.0031136761
											58:leaf=0.0307952669
										52:leaf=0.0744229853
								38:leaf=0.0785408393
							28:[V1396<2] yes=39,no=40,missing=39
								39:[V584<1] yes=47,no=48,missing=47
									47:[V2923<1] yes=53,no=54,missing=53
										53:leaf=-0.110768266
										54:leaf=-0.0179687552
									48:leaf=-0.0174649563
								40:leaf=0.0148557518
						22:[V675<1] yes=29,no=30,missing=29
							29:leaf=-0.0882343128
							30:leaf=0.00903899781
					18:[V3786<2] yes=23,no=24,missing=23
						23:[V412<1] yes=31,no=32,missing=31
							31:leaf=-0.0945206285
							32:leaf=-0.032466121
						24:leaf=-0.00541575206
				14:leaf=0.0788056925
			8:[V154<1] yes=15,no=16,missing=15
				15:[V813<1] yes=19,no=20,missing=19
					19:[V1264<3] yes=25,no=26,missing=25
						25:[V1577<1] yes=33,no=34,missing=33
							33:[V1269<1] yes=41,no=42,missing=41
								41:leaf=0.0947187319
								42:leaf=-0.000338697602
							34:leaf=-0.00552514428
						26:[V1684<2] yes=35,no=36,missing=35
							35:[V1180<1] yes=43,no=44,missing=43
								43:leaf=-0.0257185921
								44:leaf=0.0607265867
							36:leaf=-0.0594863407
					20:leaf=-0.0557652749
				16:leaf=-0.0676426217
		4:[V412<1] yes=9,no=10,missing=9
			9:leaf=0.0823032632
			10:leaf=-0.0538278483
	2:[V2311<1] yes=5,no=6,missing=5
		5:[V4307<1] yes=11,no=12,missing=11
			11:leaf=0.11062745
			12:leaf=0.0224600658
		6:leaf=-0.0106126936
booster[24]:
0:[V4193<1] yes=1,no=2,missing=1
	1:[V3547<1] yes=3,no=4,missing=3
		3:[V4149<1] yes=7,no=8,missing=7
			7:[V2094<1] yes=11,no=12,missing=11
				11:[V675<1] yes=13,no=14,missing=13
					13:[V2113<1] yes=17,no=18,missing=17
						17:[V3367<1] yes=21,no=22,missing=21
							21:[V2325<1] yes=27,no=28,missing=27
								27:[V1180<1] yes=37,no=38,missing=37
									37:[V3016<1] yes=43,no=44,missing=43
										43:[V4224<1] yes=49,no=50,missing=49
											49:[V987<1] yes=55,no=56,missing=55
												55:leaf=-0.0324506983
												56:leaf=0.0371181704
											50:leaf=0.0727549642
										44:leaf=0.0799111053
									38:[V4307<1] yes=45,no=46,missing=45
										45:[V2098<1] yes=51,no=52,missing=51
											51:leaf=0.0920068547
											52:leaf=0.0130947595
										46:leaf=-0.0257422607
								28:[V690<1] yes=39,no=40,missing=39
									39:leaf=0.0938562378
									40:leaf=-0.00513335085
							22:[V1684<2] yes=29,no=30,missing=29
								29:leaf=-0.0872422755
								30:leaf=-0.0237825103
						18:leaf=-0.0890751556
					14:[V3900<1] yes=19,no=20,missing=19
						19:[V1513<1] yes=23,no=24,missing=23
							23:[V420<1] yes=31,no=32,missing=31
								31:[V55<2] yes=41,no=42,missing=41
									41:[V3786<1] yes=47,no=48,missing=47
										47:[V4192<2] yes=53,no=54,missing=53
											53:[V4155<1] yes=57,no=58,missing=57
												57:leaf=0.108540609
												58:leaf=0.0279231947
											54:leaf=0.0279008728
										48:leaf=0.0194833018
									42:leaf=-0.00372934295
								32:leaf=-3.61312232e-05
							24:[V675<2] yes=33,no=34,missing=33
								33:leaf=-0.0954238251
								34:leaf=0.0520958491
						20:[V1723<1] yes=25,no=26,missing=25
							25:[V2093<2] yes=35,no=36,missing=35
								35:leaf=-0.0775041357
								36:leaf=-0.00652628671
							26:leaf=0.0476417691
				12:[V3894<1] yes=15,no=16,missing=15
					15:leaf=0.0919091105
					16:leaf=-0.00607631728
			8:leaf=-0.08785633
		4:[V4295<2] yes=9,no=10,missing=9
			9:leaf=-0.0864725932
			10:leaf=-0.0218970943
	2:[V3167<2] yes=5,no=6,missing=5
		5:leaf=-0.097252138
		6:leaf=0.0223257095
booster[25]:
0:[V288<1] yes=1,no=2,missing=1
	1:[V2060<1] yes=3,no=4,missing=3
		3:[V467<1] yes=7,no=8,missing=7
			7:[V969<1] yes=15,no=16,missing=15
				15:[V3140<1] yes=21,no=22,missing=21
					21:[V1378<1] yes=25,no=26,missing=25
						25:[V646<1] yes=29,no=30,missing=29
							29:[V4193<1] yes=31,no=32,missing=31
								31:[V3436<1] yes=35,no=36,missing=35
									35:[V3091<1] yes=39,no=40,missing=39
										39:[V2901<1] yes=43,no=44,missing=43
											43:[V3359<1] yes=45,no=46,missing=45
												45:leaf=0.0434616357
												46:leaf=-0.0741885006
											44:leaf=-0.0667523444
										40:leaf=-0.0727011412
									36:leaf=-0.0962217525
								32:[V3817<1] yes=37,no=38,missing=37
									37:[V873<1] yes=41,no=42,missing=41
										41:leaf=-0.081496872
										42:leaf=-0.00030468445
									38:leaf=0.0115434742
							30:[V2983<1] yes=33,no=34,missing=33
								33:leaf=-0.0748364404
								34:leaf=-0.0162457898
						26:leaf=-0.0895532221
					22:[V1437<1] yes=27,no=28,missing=27
						27:leaf=-0.0930022076
						28:leaf=-0.0271492973
				16:[V476<2] yes=23,no=24,missing=23
					23:leaf=-0.101041384
					24:leaf=-0.0274348427
			8:leaf=0.0969036222
		4:[V4074<1] yes=9,no=10,missing=9
			9:[V2060<7] yes=17,no=18,missing=17
				17:leaf=-0.0993303657
				18:leaf=0.00267908582
			10:leaf=0.0266595744
	2:[V274<1] yes=5,no=6,missing=5
		5:[V3717<1] yes=11,no=12,missing=11
			11:[V705<1] yes=19,no=20,missing=19
				19:leaf=-0.101550527
				20:leaf=-0.0115941726
			12:leaf=0.0145836109
		6:[V279<1] yes=13,no=14,missing=13
			13:leaf=0.0237572361
			14:leaf=-0.0235822666
booster[26]:
0:[V939<1] yes=1,no=2,missing=1
	1:[V504<2] yes=3,no=4,missing=3
		3:[V2766<2] yes=7,no=8,missing=7
			7:[V2541<1] yes=11,no=12,missing=11
				11:[V2513<1] yes=15,no=16,missing=15
					15:[V3093<1] yes=17,no=18,missing=17
						17:[V1264<1] yes=19,no=20,missing=19
							19:[V1401<1] yes=21,no=22,missing=21
								21:[V1886<1] yes=25,no=26,missing=25
									25:[V2508<1] yes=31,no=32,missing=31
										31:[V228<1] yes=37,no=38,missing=37
											37:[V2060<1] yes=43,no=44,missing=43
												43:leaf=0.053865578
												44:leaf=-0.0413614549
											38:leaf=-0.063517049
										32:leaf=-0.0704941973
									26:leaf=-0.0741439387
								22:leaf=-0.0758902505
							20:[V987<1] yes=23,no=24,missing=23
								23:[V2510<1] yes=27,no=28,missing=27
									27:[V116<1] yes=33,no=34,missing=33
										33:[V2413<2] yes=39,no=40,missing=39
											39:[V1062<1] yes=45,no=46,missing=45
												45:leaf=-0.0670384616
												46:leaf=0.026053099
											40:leaf=0.0519054346
										34:leaf=0.0605993345
									28:leaf=0.0768108517
								24:[V2701<1] yes=29,no=30,missing=29
									29:[V2095<1] yes=35,no=36,missing=35
										35:[V392<1] yes=41,no=42,missing=41
											41:leaf=0.0714818686
											42:[V1190<1] yes=47,no=48,missing=47
												47:leaf=-0.0044465228
												48:leaf=0.0318030007
										36:leaf=-0.0315203369
									30:leaf=-0.0855850577
						18:leaf=0.0736602023
					16:leaf=0.0732865483
				12:leaf=0.0753741935
			8:[V4270<1] yes=13,no=14,missing=13
				13:leaf=0.0869698077
				14:leaf=0.00468986155
		4:[V592<1] yes=9,no=10,missing=9
			9:leaf=0.0909034237
			10:leaf=-0.0464275442
	2:[V1437<1] yes=5,no=6,missing=5
		5:leaf=0.0874808058
		6:leaf=0.00667717261
booster[27]:
0:[V3359<1] yes=1,no=2,missing=1
	1:[V465<1] yes=3,no=4,missing=3
		3:[V4224<1] yes=5,no=6,missing=5
			5:[V1599<1] yes=7,no=8,missing=7
				7:[V995<1] yes=9,no=10,missing=9
					9:[V240<1] yes=13,no=14,missing=13
						13:[V3489<1] yes=17,no=18,missing=17
							17:[V751<1] yes=23,no=24,missing=23
								23:[V3015<1] yes=27,no=28,missing=27
									27:[V3090<1] yes=31,no=32,missing=31
										31:[V546<1] yes=33,no=34,missing=33
											33:[V1729<1] yes=35,no=36,missing=35
												35:leaf=-0.0185817499
												36:leaf=0.0661047623
											34:[V675<1] yes=37,no=38,missing=37
												37:leaf=0.0806770176
												38:leaf=0.0091730617
										32:leaf=-0.0962675735
									28:leaf=0.0778123587
								24:leaf=0.0702592283
							18:[V3038<1] yes=25,no=26,missing=25
								25:[V824<1] yes=29,no=30,missing=29
									29:leaf=0.0743026882
									30:leaf=0.0114325453
								26:leaf=-0.0107989898
						14:[V4147<1] yes=19,no=20,missing=19
							19:leaf=-0.0906181633
							20:leaf=-0.00353116915
					10:[V3038<1] yes=15,no=16,missing=15
						15:[V2062<1] yes=21,no=22,missing=21
							21:leaf=0.0751792639
							22:leaf=0.0234957226
						16:leaf=2.80909517e-05
				8:[V3381<1] yes=11,no=12,missing=11
					11:leaf=0.0203690603
					12:leaf=0.0878194943
			6:leaf=0.0839106813
		4:leaf=-0.0901859552
	2:leaf=-0.0925421119
booster[28]:
0:[V969<1] yes=1,no=2,missing=1
	1:[V988<1] yes=3,no=4,missing=3
		3:[V504<2] yes=7,no=8,missing=7
			7:[V4224<1] yes=9,no=10,missing=9
				9:[V2513<1] yes=11,no=12,missing=11
					11:[V391<2] yes=13,no=14,missing=13
						13:[V3692<1] yes=15,no=16,missing=15
							15:[V50<1] yes=19,no=20,missing=19
								19:[V675<1] yes=21,no=22,missing=21
									21:[V4290<1] yes=23,no=24,missing=23
										23:[V981<1] yes=27,no=28,missing=27
											27:[V2969<1] yes=31,no=32,missing=31
												31:leaf=-0.00598147372
												32:leaf=-0.0782640874
											28:leaf=-0.0851442143
										24:leaf=-0.0899454728
									22:[V3218<1] yes=25,no=26,missing=25
										25:[V420<1] yes=29,no=30,missing=29
											29:[V2575<1] yes=33,no=34,missing=33
												33:leaf=0.0248384532
												34:leaf=-0.0716488138
											30:leaf=-0.0578582548
										26:leaf=0.0996819735
								20:leaf=-0.101381056
							16:leaf=0.0718977228
						14:[V2266<1] yes=17,no=18,missing=17
							17:leaf=-0.0992693752
							18:leaf=-0.015133814
					12:leaf=0.0844025463
				10:leaf=0.0798163638
			8:leaf=0.0780292004
		4:leaf=0.0883294046
	2:[V3705<1] yes=5,no=6,missing=5
		5:leaf=-0.108886234
		6:leaf=-0.0255034361
booster[29]:
0:[V2189<1] yes=1,no=2,missing=1
	1:[V2150<2] yes=3,no=4,missing=3
		3:[V2311<1] yes=7,no=8,missing=7
			7:[V2093<3] yes=11,no=12,missing=11
				11:[V2060<2] yes=15,no=16,missing=15
					15:[V4193<1] yes=21,no=22,missing=21
						21:[V2651<1] yes=25,no=26,missing=25
							25:[V3707<1] yes=29,no=30,missing=29
								29:[V464<1] yes=31,no=32,missing=31
									31:[V1670<1] yes=33,no=34,missing=33
										33:[V2840<1] yes=35,no=36,missing=35
											35:[V2766<1] yes=39,no=40,missing=39
												39:leaf=0.00610046554
												40:leaf=0.0740860552
											36:leaf=-0.0687843263
										34:[V2972<1] yes=37,no=38,missing=37
											37:[V892<1] yes=41,no=42,missing=41
												41:leaf=0.0998230055
												42:leaf=0.0143932784
											38:leaf=0.00622656336
									32:leaf=-0.0779048651
								30:leaf=-0.094020322
							26:leaf=-0.0995365158
						22:[V1977<1] yes=27,no=28,missing=27
							27:leaf=-0.0785705447
							28:leaf=-0.0142554073
					16:leaf=-0.0847644731
				12:[V690<2] yes=17,no=18,missing=17
					17:leaf=0.0876821056
					18:leaf=6.84316619e-05
			8:[V564<1] yes=13,no=14,missing=13
				13:[V1547<1] yes=19,no=20,missing=19
					19:[V274<1] yes=23,no=24,missing=23
						23:leaf=-0.095115982
						24:leaf=-0.02376993
					20:leaf=-0.0204315986
				14:leaf=-0.000773201755
		4:leaf=-0.0860482007
	2:[V420<1] yes=5,no=6,missing=5
		5:[V1747<1] yes=9,no=10,missing=9
			9:leaf=0.0983814597
			10:leaf=0.00879692473
		6:leaf=-0.00803292915
booster[30]:
0:[V2303<1] yes=1,no=2,missing=1
	1:[V3405<1] yes=3,no=4,missing=3
		3:[V662<1] yes=7,no=8,missing=7
			7:[V4065<1] yes=9,no=10,missing=9
				9:[V1656<1] yes=13,no=14,missing=13
					13:[V813<1] yes=15,no=16,missing=15
						15:[V2184<1] yes=17,no=18,missing=17
							17:[V2592<1] yes=19,no=20,missing=19
								19:[V2424<1] yes=21,no=22,missing=21
									21:[V746<1] yes=25,no=26,missing=25
										25:[V239<1] yes=27,no=28,missing=27
											27:[V2228<1] yes=31,no=32,missing=31
												31:leaf=0.0163677353
												32:leaf=-0.0814299136
											28:leaf=-0.0818458572
										26:[V2875<1] yes=29,no=30,missing=29
											29:[V764<1] yes=33,no=34,missing=33
												33:leaf=0.0522287749
												34:leaf=-0.0577461608
											30:leaf=-0.0500949435
									22:leaf=-0.0683857575
								20:[V2969<1] yes=23,no=24,missing=23
									23:leaf=-0.0142759169
									24:leaf=-0.0799790472
							18:leaf=-0.0899142474
						16:leaf=-0.0776048079
					14:leaf=-0.087280117
				10:leaf=-0.101285249
			8:[V3729<1] yes=11,no=12,missing=11
				11:leaf=0.0880427063
				12:leaf=0.0141478004
		4:leaf=-0.0881117061
	2:[V675<1] yes=5,no=6,missing=5
		5:leaf=-0.0946818516
		6:leaf=-0.0017739021
booster[31]:
0:[V3554<1] yes=1,no=2,missing=1
	1:[V543<2] yes=3,no=4,missing=3
		3:[V373<1] yes=7,no=8,missing=7
			7:[V4279<1] yes=9,no=10,missing=9
				9:[V2060<1] yes=11,no=12,missing=11
					11:[V746<1] yes=13,no=14,missing=13
						13:[V2419<1] yes=17,no=18,missing=17
							17:[V4224<1] yes=23,no=24,missing=23
								23:[V2266<1] yes=27,no=28,missing=27
									27:[V3199<1] yes=31,no=32,missing=31
										31:[V4192<1] yes=37,no=38,missing=37
											37:[V2776<1] yes=43,no=44,missing=43
												43:leaf=-0.0697037131
												44:leaf=0.028842466
											38:[V3381<1] yes=45,no=46,missing=45
												45:leaf=0.0211862568
												46:leaf=0.00351404003
										32:[V3381<1] yes=39,no=40,missing=39
											39:leaf=0.0634064451
											40:leaf=-0.0157174822
									28:[V3381<2] yes=33,no=34,missing=33
										33:leaf=0.0470244847
										34:leaf=-0.038741298
								24:leaf=0.0685212985
							18:leaf=0.0667782649
						14:[V2080<1] yes=19,no=20,missing=19
							19:[V609<1] yes=25,no=26,missing=25
								25:[V2187<1] yes=29,no=30,missing=29
									29:[V1680<1] yes=35,no=36,missing=35
										35:[V1219<1] yes=41,no=42,missing=41
											41:[V4149<1] yes=47,no=48,missing=47
												47:leaf=0.0552080348
												48:leaf=-0.0607542694
											42:leaf=-0.0724957958
										36:leaf=-0.0750918984
									30:leaf=-0.0671282038
								26:leaf=-0.0642348006
							20:leaf=-0.0764775574
					12:[V4074<1] yes=15,no=16,missing=15
						15:[V2060<3] yes=21,no=22,missing=21
							21:leaf=-0.0906201601
							22:leaf=-0.0147742489
						16:leaf=0.00268381904
				10:leaf=-0.094347842
			8:leaf=0.0890957341
		4:leaf=0.105434701
	2:[V4074<1] yes=5,no=6,missing=5
		5:leaf=0.0742634088
		6:leaf=-0.000115876057
booster[32]:
0:[V288<1] yes=1,no=2,missing=1
	1:[V3296<1] yes=3,no=4,missing=3
		3:[V2565<1] yes=7,no=8,missing=7
			7:[V2382<1] yes=11,no=12,missing=11
				11:[V3367<1] yes=17,no=18,missing=17
					17:[V419<1] yes=25,no=26,missing=25
						25:[V3359<1] yes=33,no=34,missing=33
							33:[V3038<2] yes=39,no=40,missing=39
								39:[V1619<1] yes=43,no=44,missing=43
									43:[V3845<1] yes=45,no=46,missing=45
										45:[V3405<1] yes=47,no=48,missing=47
											47:[V4255<1] yes=49,no=50,missing=49
												49:leaf=0.0526740551
												50:leaf=-0.0564369634
											48:leaf=-0.0405904166
										46:leaf=-0.0576779656
									44:leaf=-0.0833498612
								40:leaf=-0.0692604184
							34:leaf=-0.0553690046
						26:leaf=-0.0720869973
					18:leaf=-0.0639510825
				12:leaf=-0.0909724012
			8:[V3123<1] yes=13,no=14,missing=13
				13:[V746<2] yes=19,no=20,missing=19
					19:[V2266<1] yes=27,no=28,missing=27
						27:[V2565<3] yes=35,no=36,missing=35
							35:[V4074<1] yes=41,no=42,missing=41
								41:leaf=-0.112500362
								42:leaf=-0.0257332027
							36:leaf=-0.0285536982
						28:leaf=0.0238789245
					20:[V358<1] yes=29,no=30,missing=29
						29:[V3895<1] yes=37,no=38,missing=37
							37:leaf=0.031958323
							38:leaf=-0.00496020867
						30:leaf=-0.0569221303
				14:[V2827<1] yes=21,no=22,missing=21
					21:[V2565<2] yes=31,no=32,missing=31
						31:leaf=-0.0016751705
						32:leaf=0.0816345364
					22:leaf=-0.0558068417
		4:leaf=-0.0698582083
	2:[V662<1] yes=5,no=6,missing=5
		5:[V3095<1] yes=9,no=10,missing=9
			9:[V3247<1] yes=15,no=16,missing=15
				15:[V1756<1] yes=23,no=24,missing=23
					23:leaf=-0.0962341949
					24:leaf=-0.0239584353
				16:leaf=-0.0018685261
			10:leaf=0.0353897475
		6:leaf=0.0404596031
booster[33]:
0:[V288<1] yes=1,no=2,missing=1
	1:[V564<1] yes=3,no=4,missing=3
		3:[V3367<1] yes=7,no=8,missing=7
			7:[V3089<1] yes=15,no=16,missing=15
				15:[V2969<1] yes=19,no=20,missing=19
					19:[V764<1] yes=23,no=24,missing=23
						23:[V984<1] yes=29,no=30,missing=29
							29:[V987<1] yes=33,no=34,missing=33
								33:[V2962<1] yes=35,no=36,missing=35
									35:[V2078<1] yes=39,no=40,missing=39
										39:[V398<1] yes=43,no=44,missing=43
											43:[V3411<1] yes=47,no=48,missing=47
												47:leaf=0.0293737631
												48:leaf=-0.0491647869
											44:leaf=-0.0598312728
										40:[V258<1] yes=45,no=46,missing=45
											45:leaf=-0.0952627361
											46:leaf=0.0088356575
									36:leaf=-0.0737119019
								34:[V1264<3] yes=37,no=38,missing=37
									37:leaf=0.0907405391
									38:[V258<2] yes=41,no=42,missing=41
										41:leaf=-0.0175643116
										42:leaf=0.0287336297
							30:leaf=-0.0751768053
						24:leaf=-0.0917089432
					20:[V2093<1] yes=25,no=26,missing=25
						25:leaf=-0.0929626524
						26:leaf=0.0255216863
				16:leaf=-0.0893868655
			8:leaf=-0.0771101341
		4:[V1523<1] yes=9,no=10,missing=9
			9:[V4301<1] yes=17,no=18,missing=17
				17:[V2595<1] yes=21,no=22,missing=21
					21:[V2431<2] yes=27,no=28,missing=27
						27:leaf=0.0902221128
						28:[V2880<1] yes=31,no=32,missing=31
							31:leaf=-0.00327516813
							32:leaf=0.0579245314
					22:leaf=-0.0015740142
				18:leaf=-0.0200806987
			10:leaf=-0.0434127375
	2:[V274<1] yes=5,no=6,missing=5
		5:[V1752<1] yes=11,no=12,missing=11
			11:leaf=-0.0857850909
			12:leaf=-0.0247182921
		6:[V4307<1] yes=13,no=14,missing=13
			13:leaf=0.0490017831
			14:leaf=-0.0226798989
booster[34]:
0:[V288<1] yes=1,no=2,missing=1
	1:[V2851<1] yes=3,no=4,missing=3
		3:[V2272<1] yes=7,no=8,missing=7
			7:[V3643<1] yes=13,no=14,missing=13
				13:[V2979<1] yes=17,no=18,missing=17
					17:[V764<1] yes=19,no=20,missing=19
						19:[V3547<1] yes=23,no=24,missing=23
							23:[V2411<1] yes=25,no=26,missing=25
								25:[V3027<1] yes=29,no=30,missing=29
									29:[V2488<1] yes=33,no=34,missing=33
										33:[V3296<1] yes=35,no=36,missing=35
											35:[V2124<1] yes=39,no=40,missing=39
												39:leaf=0.031969171
												40:leaf=-0.0792241096
											36:leaf=-0.0708486959
										34:[V3199<1] yes=37,no=38,missing=37
											37:leaf=-0.0696932524
											38:leaf=0.0248018745
									30:leaf=-0.0859877914
								26:[V1190<1] yes=31,no=32,missing=31
									31:leaf=-0.093084611
									32:leaf=0.00654450757
							24:[V591<1] yes=27,no=28,missing=27
								27:leaf=-0.0731494576
								28:leaf=-0.0218137093
						20:leaf=-0.0925853625
					18:[V3814<1] yes=21,no=22,missing=21
						21:leaf=-0.0781885162
						22:leaf=-0.0100946091
				14:leaf=0.102817841
			8:leaf=-0.088143751
		4:[V2107<1] yes=9,no=10,missing=9
			9:leaf=0.0861440971
			10:leaf=0.0169364121
	2:[V1427<1] yes=5,no=6,missing=5
		5:[V2359<1] yes=11,no=12,missing=11
			11:[V2776<1] yes=15,no=16,missing=15
				15:leaf=-0.0880687907
				16:leaf=-0.0299479198
			12:leaf=2.10917697e-05
		6:leaf=0.0138806766
booster[35]:
0:[V288<1] yes=1,no=2,missing=1
	1:[V467<1] yes=3,no=4,missing=3
		3:[V2284<1] yes=7,no=8,missing=7
			7:[V2613<1] yes=11,no=12,missing=11
				11:[V3780<1] yes=19,no=20,missing=19
					19:[V238<1] yes=21,no=22,missing=21
						21:[V3629<1] yes=25,no=26,missing=25
							25:[V2686<1] yes=29,no=30,missing=29
								29:[V2271<2] yes=33,no=34,missing=33
									33:[V1779<1] yes=35,no=36,missing=35
										35:[V2150<1] yes=37,no=38,missing=37
											37:[V764<1] yes=39,no=40,missing=39
												39:leaf=0.0322516076
												40:leaf=-0.0730795413
											38:[V3273<1] yes=41,no=42,missing=41
												41:leaf=-0.0485512055
												42:leaf=0.0155174248
										36:leaf=-0.0710340515
									34:leaf=-0.0660462901
								30:leaf=-0.0881053209
							26:leaf=-0.0811007693
						22:leaf=-0.0812105387
					20:[V2708<1] yes=23,no=24,missing=23
						23:[V1446<1] yes=27,no=28,missing=27
							27:[V1190<2] yes=31,no=32,missing=31
								31:leaf=-0.105904311
								32:leaf=-0.00971368514
							28:leaf=0.00889880117
						24:leaf=0.0493134707
				12:leaf=-0.0893168673
			8:[V3172<1] yes=13,no=14,missing=13
				13:leaf=0.0938273892
				14:leaf=-0.000517869717
		4:leaf=0.0927152038
	2:[V242<2] yes=5,no=6,missing=5
		5:[V412<1] yes=9,no=10,missing=9
			9:[V3130<1] yes=15,no=16,missing=15
				15:leaf=-0.0911142454
				16:leaf=-0.0214860886
			10:[V3177<1] yes=17,no=18,missing=17
				17:leaf=0.00508240564
				18:leaf=-0.0218068808
		6:leaf=0.0247456972
booster[36]:
0:[V288<1] yes=1,no=2,missing=1
	1:[V467<1] yes=3,no=4,missing=3
		3:[V3296<1] yes=7,no=8,missing=7
			7:[V3027<1] yes=11,no=12,missing=11
				11:[V2339<1] yes=15,no=16,missing=15
					15:[V3089<1] yes=17,no=18,missing=17
						17:[V1764<1] yes=19,no=20,missing=19
							19:[V1378<1] yes=21,no=22,missing=21
								21:[V1779<1] yes=23,no=24,missing=23
									23:[V2962<1] yes=25,no=26,missing=25
										25:[V3038<1] yes=27,no=28,missing=27
											27:[V2613<1] yes=31,no=32,missing=31
												31:leaf=0.0376021713
												32:leaf=-0.0677589998
											28:[V2093<1] yes=33,no=34,missing=33
												33:leaf=-0.0600122288
												34:leaf=0.0466824323
										26:[V705<1] yes=29,no=30,missing=29
											29:leaf=-0.084550932
											30:leaf=0.0124332272
									24:leaf=-0.0655822083
								22:leaf=-0.0838712826
							20:leaf=-0.0960290208
						18:leaf=-0.0882252231
					16:leaf=-0.0881327167
				12:leaf=-0.0886987522
			8:leaf=-0.0831606314
		4:leaf=0.0867219791
	2:[V3239<1] yes=5,no=6,missing=5
		5:[V2646<1] yes=9,no=10,missing=9
			9:[V1959<1] yes=13,no=14,missing=13
				13:leaf=-0.0872248858
				14:leaf=-0.022190094
			10:leaf=0.0049395957
		6:leaf=0.0208903719
booster[37]:
0:[V1481<1] yes=1,no=2,missing=1
	1:[V467<1] yes=3,no=4,missing=3
		3:[V613<1] yes=5,no=6,missing=5
			5:[V3348<1] yes=9,no=10,missing=9
				9:[V1684<3] yes=13,no=14,missing=13
					13:[V2359<1] yes=15,no=16,missing=15
						15:[V1343<1] yes=19,no=20,missing=19
							19:[V2510<1] yes=25,no=26,missing=25
								25:[V435<1] yes=31,no=32,missing=31
									31:[V937<1] yes=33,no=34,missing=33
										33:[V708<1] yes=37,no=38,missing=37
											37:[V1446<1] yes=39,no=40,missing=39
												39:leaf=-0.0360759795
												40:leaf=0.0341307446
											38:[V746<1] yes=41,no=42,missing=41
												41:leaf=0.00133651041
												42:leaf=0.0596116036
										34:leaf=0.0619570836
									32:[V258<1] yes=35,no=36,missing=35
										35:leaf=0.0939739719
										36:leaf=-0.017071858
								26:leaf=0.0754121616
							20:leaf=0.073211737
						16:[V1941<1] yes=21,no=22,missing=21
							21:[V1513<1] yes=27,no=28,missing=27
								27:leaf=0.0732418895
								28:leaf=0.00737333391
							22:leaf=-0.0156496391
					14:[V1121<1] yes=17,no=18,missing=17
						17:[V705<1] yes=23,no=24,missing=23
							23:[V1264<1] yes=29,no=30,missing=29
								29:leaf=-0.0285334419
								30:leaf=-0.0944615901
							24:leaf=-0.00685016904
						18:leaf=0.0072880229
				10:leaf=0.0715730712
			6:leaf=0.0737238526
		4:[V242<1] yes=7,no=8,missing=7
			7:[V3967<1] yes=11,no=12,missing=11
				11:leaf=0.0876999721
				12:leaf=0.0238467492
			8:leaf=0.00757027837
	2:leaf=0.0790148005
booster[38]:
0:[V988<1] yes=1,no=2,missing=1
	1:[V4279<1] yes=3,no=4,missing=3
		3:[V1723<1] yes=5,no=6,missing=5
			5:[V2963<1] yes=7,no=8,missing=7
				7:[V2537<1] yes=11,no=12,missing=11
					11:[V1587<1] yes=15,no=16,missing=15
						15:[V223<1] yes=19,no=20,missing=19
							19:[V2189<1] yes=23,no=24,missing=23
								23:[V2567<1] yes=27,no=28,missing=27
									27:[V1763<1] yes=33,no=34,missing=33
										33:[V2510<1] yes=37,no=38,missing=37
											37:[V386<1] yes=39,no=40,missing=39
												39:leaf=-0.0483483747
												40:leaf=0.0425504893
											38:leaf=0.0577257574
										34:leaf=0.0603138767
									28:[V2094<1] yes=35,no=36,missing=35
										35:leaf=0.0115667563
										36:leaf=0.0668624416
								24:[V3895<1] yes=29,no=30,missing=29
									29:leaf=0.000506264798
									30:leaf=0.0653289482
							20:leaf=0.0685883164
						16:[V2565<8] yes=21,no=22,missing=21
							21:[V124<1] yes=25,no=26,missing=25
								25:[V2565<1] yes=31,no=32,missing=31
									31:leaf=0.0207313206
									32:leaf=0.0798424184
								26:leaf=-0.00915558636
							22:leaf=-0.046986796
					12:leaf=0.0730848536
				8:leaf=0.0843120739
			6:[V288<1] yes=9,no=10,missing=9
				9:[V2617<1] yes=13,no=14,missing=13
					13:[V4272<1] yes=17,no=18,missing=17
						17:leaf=0.0793211162
						18:leaf=0.0160767119
					14:leaf=0.0150013976
				10:leaf=-0.0360843427
		4:leaf=-0.085426487
	2:leaf=0.0805394351
booster[39]:
0:[V288<1] yes=1,no=2,missing=1
	1:[V969<1] yes=3,no=4,missing=3
		3:[V2347<1] yes=7,no=8,missing=7
			7:[V2080<1] yes=11,no=12,missing=11
				11:[V3027<1] yes=13,no=14,missing=13
					13:[V4040<1] yes=15,no=16,missing=15
						15:[V1262<1] yes=17,no=18,missing=17
							17:[V3600<1] yes=21,no=22,missing=21
								21:[V3090<1] yes=25,no=26,missing=25
									25:[V2858<1] yes=27,no=28,missing=27
										27:[V1779<1] yes=29,no=30,missing=29
											29:[V592<1] yes=31,no=32,missing=31
												31:leaf=0.0465224944
												32:leaf=-0.058891803
											30:leaf=-0.0625712499
										28:leaf=-0.0679168105
									26:leaf=-0.0608438216
								22:leaf=-0.0529460125
							18:leaf=-0.077912733
						16:[V4228<1] yes=19,no=20,missing=19
							19:[V1684<1] yes=23,no=24,missing=23
								23:leaf=0.0145942513
								24:leaf=-0.0325765945
							20:leaf=-0.0829134658
					14:leaf=-0.0824894086
				12:leaf=-0.0724695772
			8:leaf=-0.0744283795
		4:leaf=-0.0759255588
	2:[V1682<1] yes=5,no=6,missing=5
		5:[V1441<1] yes=9,no=10,missing=9
			9:leaf=-0.0838782117
			10:leaf=0.0148869846
		6:leaf=0.0177566037
booster[40]:
0:[V467<1] yes=1,no=2,missing=1
	1:[V1343<1] yes=3,no=4,missing=3
		3:[V3939<1] yes=7,no=8,missing=7
			7:[V4022<1] yes=9,no=10,missing=9
				9:[V2155<1] yes=13,no=14,missing=13
					13:[V2369<1] yes=15,no=16,missing=15
						15:[V543<1] yes=17,no=18,missing=17
							17:[V4224<1] yes=19,no=20,missing=19
								19:[V54<1] yes=23,no=24,missing=23
									23:[V2535<1] yes=25,no=26,missing=25
										25:[V2708<4] yes=27,no=28,missing=27
											27:[V2189<1] yes=29,no=30,missing=29
												29:leaf=-0.0426338725
												30:leaf=0.0225718245
											28:[V4192<1] yes=31,no=32,missing=31
												31:leaf=0.0603584498
												32:leaf=-0.0285474993
										26:leaf=0.0621793866
									24:leaf=0.0640231073
								20:leaf=0.0606140494
							18:[V391<2] yes=21,no=22,missing=21
								21:leaf=0.0662946999
								22:leaf=-0.00141320145
						16:leaf=0.0635701567
					14:leaf=0.0644257814
				10:leaf=0.0712399036
			8:[V3381<1] yes=11,no=12,missing=11
				11:leaf=0.0202863868
				12:leaf=0.0693490729
		4:leaf=0.0728905126
	2:[V3900<1] yes=5,no=6,missing=5
		5:leaf=0.0752092972
		6:leaf=0.0115898037
booster[41]:
0:[V2150<1] yes=1,no=2,missing=1
	1:[V4040<1] yes=3,no=4,missing=3
		3:[V1378<1] yes=7,no=8,missing=7
			7:[V2060<1] yes=11,no=12,missing=11
				11:[V3819<1] yes=13,no=14,missing=13
					13:[V172<1] yes=17,no=18,missing=17
						17:[V3594<1] yes=23,no=24,missing=23
							23:[V1656<1] yes=29,no=30,missing=29
								29:[V4033<1] yes=31,no=32,missing=31
									31:[V2187<1] yes=33,no=34,missing=33
										33:[V854<1] yes=37,no=38,missing=37
											37:[V206<1] yes=39,no=40,missing=39
												39:leaf=0.05269197
												40:leaf=-0.0119212437
											38:leaf=-0.0596620403
										34:leaf=-0.0673242509
									32:[V3177<1] yes=35,no=36,missing=35
										35:leaf=-0.0699294582
										36:leaf=0.00440860214
								30:leaf=-0.0700610578
							24:leaf=-0.071930021
						18:[V1446<1] yes=25,no=26,missing=25
							25:leaf=-0.0225065611
							26:leaf=-0.0729920864
					14:leaf=-0.0712150857
				12:[V3232<1] yes=15,no=16,missing=15
					15:[V3167<1] yes=19,no=20,missing=19
						19:leaf=-0.0785351619
						20:leaf=-0.0202823691
					16:[V1140<1] yes=21,no=22,missing=21
						21:[V3528<1] yes=27,no=28,missing=27
							27:leaf=-0.000981598976
							28:leaf=0.100160897
						22:leaf=-0.0652807876
			8:leaf=-0.0672192648
		4:leaf=-0.0689848438
	2:[V3817<1] yes=5,no=6,missing=5
		5:[V258<1] yes=9,no=10,missing=9
			9:leaf=-0.00880560558
			10:leaf=-0.0784092098
		6:leaf=0.00780912628
booster[42]:
0:[V543<2] yes=1,no=2,missing=1
	1:[V826<1] yes=3,no=4,missing=3
		3:[V2424<1] yes=5,no=6,missing=5
			5:[V413<1] yes=9,no=10,missing=9
				9:[V3038<1] yes=13,no=14,missing=13
					13:[V1764<1] yes=17,no=18,missing=17
						17:[V1619<1] yes=23,no=24,missing=23
							23:[V2303<2] yes=27,no=28,missing=27
								27:[V1780<1] yes=29,no=30,missing=29
									29:[V2382<1] yes=33,no=34,missing=33
										33:[V1446<3] yes=35,no=36,missing=35
											35:[V1888<1] yes=39,no=40,missing=39
												39:leaf=0.0250231922
												40:leaf=-0.058868777
											36:leaf=-0.0614949018
										34:[V959<1] yes=37,no=38,missing=37
											37:[V2382<2] yes=41,no=42,missing=41
												41:leaf=-0.090641737
												42:leaf=-0.0212991964
											38:leaf=0.03615693
									30:leaf=-0.067655988
								28:[V2431<1] yes=31,no=32,missing=31
									31:leaf=-0.065957956
									32:leaf=-0.0161905363
							24:leaf=-0.0852847472
						18:leaf=-0.0857859552
					14:[V3740<2] yes=19,no=20,missing=19
						19:[V3206<1] yes=25,no=26,missing=25
							25:leaf=-0.0798112005
							26:leaf=-0.00326803839
						20:leaf=-0.00620352523
				10:[V240<1] yes=15,no=16,missing=15
					15:[V3528<1] yes=21,no=22,missing=21
						21:leaf=0.0794763863
						22:leaf=0.0125681814
					16:leaf=-0.00127474137
			6:leaf=-0.0835905671
		4:[V1190<1] yes=7,no=8,missing=7
			7:leaf=0.00533416122
			8:[V3992<2] yes=11,no=12,missing=11
				11:leaf=-0.0978767052
				12:leaf=-0.0269939024
	2:leaf=0.0855816379
booster[43]:
0:[V2284<1] yes=1,no=2,missing=1
	1:[V675<2] yes=3,no=4,missing=3
		3:[V1599<1] yes=7,no=8,missing=7
			7:[V373<1] yes=13,no=14,missing=13
				13:[V1481<1] yes=19,no=20,missing=19
					19:[V543<1] yes=23,no=24,missing=23
						23:[V1783<1] yes=29,no=30,missing=29
							29:[V2971<1] yes=31,no=32,missing=31
								31:[V639<1] yes=35,no=36,missing=35
									35:[V675<1] yes=39,no=40,missing=39
										39:[V3550<1] yes=41,no=42,missing=41
											41:[V674<1] yes=45,no=46,missing=45
												45:leaf=-0.0585147217
												46:leaf=0.0371941365
											42:leaf=0.0419327207
										40:[V2107<1] yes=43,no=44,missing=43
											43:[V2413<1] yes=47,no=48,missing=47
												47:leaf=-0.0391412005
												48:leaf=0.0207399689
											44:leaf=0.0440374278
									36:leaf=0.0434785746
								32:[V2565<1] yes=37,no=38,missing=37
									37:leaf=0.048843123
									38:leaf=-0.0156511385
							30:[V3167<1] yes=33,no=34,missing=33
								33:leaf=0.00264571607
								34:leaf=0.0661080927
						24:leaf=0.0529506691
					20:leaf=0.0554538406
				14:leaf=0.0741948485
			8:leaf=0.0732416511
		4:[V3232<2] yes=9,no=10,missing=9
			9:[V1800<1] yes=15,no=16,missing=15
				15:[V476<1] yes=21,no=22,missing=21
					21:[V288<1] yes=25,no=26,missing=25
						25:leaf=0.081068933
						26:leaf=0.013555753
					22:[V392<1] yes=27,no=28,missing=27
						27:leaf=-0.0222413521
						28:leaf=0.0376993045
				16:leaf=-0.022947235
			10:[V2667<1] yes=17,no=18,missing=17
				17:leaf=0.0255601685
				18:leaf=-0.0631340295
	2:[V2019<1] yes=5,no=6,missing=5
		5:[V675<2] yes=11,no=12,missing=11
			11:leaf=0.10313265
			12:leaf=0.025272632
		6:leaf=-0.0387222394
booster[44]:
0:[V288<1] yes=1,no=2,missing=1
	1:[V467<1] yes=3,no=4,missing=3
		3:[V3016<1] yes=7,no=8,missing=7
			7:[V882<1] yes=11,no=12,missing=11
				11:[V2636<1] yes=15,no=16,missing=15
					15:[V3089<1] yes=17,no=18,missing=17
						17:[V2851<1] yes=21,no=22,missing=21
							21:[V3705<1] yes=25,no=26,missing=25
								25:[V3615<1] yes=27,no=28,missing=27
									27:[V813<1] yes=31,no=32,missing=31
										31:[V764<1] yes=33,no=34,missing=33
											33:[V3038<1] yes=35,no=36,missing=35
												35:leaf=0.0139849093
												36:leaf=-0.0438229963
											34:leaf=-0.0775873065
										32:leaf=-0.072512731
									28:leaf=0.0861868784
								26:[V3705<2] yes=29,no=30,missing=29
									29:leaf=-0.0860401914
									30:leaf=0.00972753763
							22:leaf=0.0708999485
						18:leaf=-0.069005914
					16:[V1899<1] yes=19,no=20,missing=19
						19:[V2880<1] yes=23,no=24,missing=23
							23:leaf=0.0725630075
							24:leaf=0.0166262854
						20:leaf=0.00970021915
				12:leaf=-0.0739046186
			8:leaf=0.0844549462
		4:leaf=0.08024019
	2:[V3095<1] yes=5,no=6,missing=5
		5:[V2205<1] yes=9,no=10,missing=9
			9:[V4298<1] yes=13,no=14,missing=13
				13:leaf=-0.0852754042
				14:leaf=-0.0207870584
			10:leaf=-0.0122878356
		6:leaf=0.0238011777
booster[45]:
0:[V2093<2] yes=1,no=2,missing=1
	1:[V708<1] yes=3,no=4,missing=3
		3:[V2513<1] yes=7,no=8,missing=7
			7:[V3237<1] yes=11,no=12,missing=11
				11:[V3870<1] yes=15,no=16,missing=15
					15:[V2537<1] yes=17,no=18,missing=17
						17:[V4215<1] yes=19,no=20,missing=19
							19:[V44<1] yes=21,no=22,missing=21
								21:[V2331<1] yes=23,no=24,missing=23
									23:[V180<1] yes=25,no=26,missing=25
										25:[V373<1] yes=27,no=28,missing=27
											27:[V1763<1] yes=31,no=32,missing=31
												31:leaf=-0.0474505275
												32:leaf=0.0517922565
											28:leaf=0.0500435755
										26:[V4295<2] yes=29,no=30,missing=29
											29:leaf=0.0442244075
											30:leaf=0.00680044293
									24:leaf=0.0556929298
								22:leaf=0.0499985628
							20:leaf=0.0535115041
						18:leaf=0.0629916564
					16:leaf=0.0602807179
				12:leaf=0.0672507435
			8:leaf=0.0610765405
		4:leaf=0.0710240006
	2:[V4295<3] yes=5,no=6,missing=5
		5:[V4295<1] yes=9,no=10,missing=9
			9:leaf=0.0186687503
			10:[V2708<1] yes=13,no=14,missing=13
				13:leaf=0.0815588981
				14:leaf=0.0124918409
		6:leaf=-0.0154079916
booster[46]:
0:[V287<1] yes=1,no=2,missing=1
	1:[V413<1] yes=3,no=4,missing=3
		3:[V2078<1] yes=7,no=8,missing=7
			7:[V168<1] yes=13,no=14,missing=13
				13:[V2150<1] yes=17,no=18,missing=17
					17:[V3405<1] yes=21,no=22,missing=21
						21:[V2184<1] yes=25,no=26,missing=25
							25:[V1039<1] yes=29,no=30,missing=29
								29:[V3359<1] yes=31,no=32,missing=31
									31:[V1427<1] yes=35,no=36,missing=35
										35:[V4252<1] yes=39,no=40,missing=39
											39:[V2651<1] yes=41,no=42,missing=41
												41:leaf=0.0533484705
												42:leaf=-0.0292042959
											40:leaf=-0.0575646609
										36:leaf=-0.0517728925
									32:leaf=-0.0626415089
								30:[V1889<1] yes=33,no=34,missing=33
									33:[V1670<1] yes=37,no=38,missing=37
										37:leaf=-0.0653172061
										38:leaf=0.00549868494
									34:leaf=0.0665692091
							26:leaf=-0.0545704849
						22:leaf=-0.0646561459
					18:[V3381<1] yes=23,no=24,missing=23
						23:[V746<1] yes=27,no=28,missing=27
							27:leaf=-0.0183639582
							28:leaf=-0.0762557387
						24:leaf=0.000558444764
				14:[V591<1] yes=19,no=20,missing=19
					19:leaf=-0.0869500563
					20:leaf=0.00502118701
			8:[V2098<1] yes=15,no=16,missing=15
				15:leaf=-0.075605765
				16:leaf=0.00526798796
		4:[V591<1] yes=9,no=10,missing=9
			9:leaf=0.0822106004
			10:leaf=-0.0172565952
	2:[V543<1] yes=5,no=6,missing=5
		5:[V3232<2] yes=11,no=12,missing=11
			11:leaf=-0.0749207884
			12:leaf=-0.0120566664
		6:leaf=0.0192152746
booster[47]:
0:[V662<1] yes=1,no=2,missing=1
	1:[V1885<1] yes=3,no=4,missing=3
		3:[V2331<1] yes=7,no=8,missing=7
			7:[V3016<1] yes=9,no=10,missing=9
				9:[V134<1] yes=11,no=12,missing=11
					11:[V2094<1] yes=13,no=14,missing=13
						13:[V3646<1] yes=15,no=16,missing=15
							15:[V1264<2] yes=19,no=20,missing=19
								19:[V2567<1] yes=23,no=24,missing=23
									23:[V758<1] yes=27,no=28,missing=27
										27:[V987<1] yes=31,no=32,missing=31
											31:[V372<1] yes=35,no=36,missing=35
												35:leaf=-0.0162681602
												36:leaf=0.0666551143
											32:[V4295<1] yes=37,no=38,missing=37
												37:leaf=0.0588188767
												38:leaf=0.0169338547
										28:leaf=-0.0714768842
									24:leaf=-0.0961600319
								20:[V3218<1] yes=25,no=26,missing=25
									25:[V3817<2] yes=29,no=30,missing=29
										29:[V3705<2] yes=33,no=34,missing=33
											33:[V4280<1] yes=39,no=40,missing=39
												39:leaf=-0.0652336329
												40:leaf=0.0165226981
											34:leaf=0.0285512023
										30:leaf=0.0363606475
									26:leaf=0.0578010976
							16:leaf=0.0586315989
						14:[V3470<1] yes=17,no=18,missing=17
							17:[V412<1] yes=21,no=22,missing=21
								21:leaf=0.0750184581
								22:leaf=0.000996953691
							18:leaf=-0.0492272973
					12:leaf=0.0686795115
				10:leaf=0.0561770014
			8:leaf=0.0685989708
		4:leaf=0.0860496461
	2:[V2617<1] yes=5,no=6,missing=5
		5:leaf=0.0747829527
		6:leaf=-0.0171543919
booster[48]:
0:[V288<1] yes=1,no=2,missing=1
	1:[V3359<1] yes=3,no=4,missing=3
		3:[V4252<1] yes=7,no=8,missing=7
			7:[V2176<1] yes=11,no=12,missing=11
				11:[V3769<1] yes=15,no=16,missing=15
					15:[V3900<1] yes=17,no=18,missing=17
						17:[V2866<1] yes=21,no=22,missing=21
							21:[V2962<1] yes=25,no=26,missing=25
								25:[V3817<1] yes=29,no=30,missing=29
									29:[V391<2] yes=33,no=34,missing=33
										33:[V2454<1] yes=39,no=40,missing=39
											39:[V3236<1] yes=43,no=44,missing=43
												43:leaf=0.0345648527
												44:leaf=-0.0334068201
											40:leaf=-0.0462197214
										34:leaf=-0.055533167
									30:[V4295<3] yes=35,no=36,missing=35
										35:leaf=0.0890700594
										36:leaf=0.0238353498
								26:leaf=-0.0562946722
							22:leaf=-0.083961077
						18:[V3681<1] yes=23,no=24,missing=23
							23:[V4259<1] yes=27,no=28,missing=27
								27:[V824<1] yes=31,no=32,missing=31
									31:[V3123<2] yes=37,no=38,missing=37
										37:[V4299<1] yes=41,no=42,missing=41
											41:[V4295<1] yes=45,no=46,missing=45
												45:leaf=-0.0301943999
												46:leaf=-0.088503845
											42:leaf=-0.0194514878
										38:leaf=0.0146337477
									32:leaf=0.0160193723
								28:leaf=0.0349828675
							24:leaf=0.0602890328
					16:[V3895<2] yes=19,no=20,missing=19
						19:leaf=0.105344743
						20:leaf=0.0176308025
				12:leaf=-0.0587124489
			8:leaf=-0.0692630559
		4:leaf=-0.0719836801
	2:[V543<1] yes=5,no=6,missing=5
		5:[V2359<1] yes=9,no=10,missing=9
			9:[V75<1] yes=13,no=14,missing=13
				13:leaf=-0.0782994479
				14:leaf=-0.00776342442
			10:leaf=0.00786423497
		6:leaf=0.0272500087
booster[49]:
0:[V504<1] yes=1,no=2,missing=1
	1:[V939<1] yes=3,no=4,missing=3
		3:[V288<1] yes=5,no=6,missing=5
			5:[V4162<1] yes=9,no=10,missing=9
				9:[V2232<1] yes=13,no=14,missing=13
					13:[V741<1] yes=19,no=20,missing=19
						19:[V1599<1] yes=23,no=24,missing=23
							23:[V134<1] yes=27,no=28,missing=27
								27:[V4224<1] yes=31,no=32,missing=31
									31:[V1343<1] yes=35,no=36,missing=35
										35:[V3271<2] yes=37,no=38,missing=37
											37:[V675<5] yes=39,no=40,missing=39
												39:leaf=-0.0359668545
												40:leaf=0.0461685322
											38:leaf=0.0608852245
										36:leaf=0.0414411984
									32:leaf=0.0572031029
								28:leaf=0.0658344179
							24:leaf=0.0587435886
						20:leaf=0.0781974345
					14:[V2972<2] yes=21,no=22,missing=21
						21:[V1405<1] yes=25,no=26,missing=25
							25:[V3850<1] yes=29,no=30,missing=29
								29:[V675<1] yes=33,no=34,missing=33
									33:leaf=-0.0137972729
									34:leaf=0.0622962639
								30:leaf=0.101016253
							26:leaf=-0.0108211916
						22:leaf=-0.036556378
				10:leaf=0.0733271539
			6:[V3992<1] yes=11,no=12,missing=11
				11:[V4299<1] yes=15,no=16,missing=15
					15:leaf=-0.0798358098
					16:leaf=-0.0124424528
				12:[V1264<2] yes=17,no=18,missing=17
					17:leaf=0.0303163975
					18:leaf=-0.0335438661
		4:[V675<3] yes=7,no=8,missing=7
			7:leaf=0.0737957656
			8:leaf=-0.00690120598
	2:leaf=0.0625450462
booster[50]:
0:[V3430<1] yes=1,no=2,missing=1
	1:[V813<1] yes=3,no=4,missing=3
		3:[V2497<1] yes=7,no=8,missing=7
			7:[V981<1] yes=11,no=12,missing=11
				11:[V3455<1] yes=15,no=16,missing=15
					15:[V1446<3] yes=19,no=20,missing=19
						19:[V523<1] yes=21,no=22,missing=21
							21:[V288<1] yes=23,no=24,missing=23
								23:[V2187<1] yes=25,no=26,missing=25
									25:[V2271<2] yes=29,no=30,missing=29
										29:[V2060<2] yes=33,no=34,missing=33
											33:[V3405<1] yes=35,no=36,missing=35
												35:leaf=0.0517609604
												36:leaf=-0.0353267975
											34:leaf=-0.0290213898
										30:leaf=-0.0492217168
									26:leaf=-0.0552288033
								24:[V412<1] yes=27,no=28,missing=27
									27:[V3177<1] yes=31,no=32,missing=31
										31:leaf=-0.0687113553
										32:leaf=-0.0123441406
									28:leaf=0.0539069735
							22:leaf=-0.0702107698
						20:leaf=-0.062714614
					16:leaf=-0.0735863224
				12:[V675<1] yes=17,no=18,missing=17
					17:leaf=-0.0801577494
					18:leaf=0.00844972674
			8:leaf=-0.0750771016
		4:leaf=-0.0737281889
	2:[V3343<1] yes=5,no=6,missing=5
		5:[V1513<1] yes=9,no=10,missing=9
			9:[V1684<1] yes=13,no=14,missing=13
				13:leaf=-0.05391974
				14:leaf=-0.00409303419
			10:leaf=-0.0847984478
		6:leaf=0.0177812967
booster[51]:
0:[V1863<1] yes=1,no=2,missing=1
	1:[V3038<1] yes=3,no=4,missing=3
		3:[V3781<1] yes=5,no=6,missing=5
			5:[V2463<1] yes=9,no=10,missing=9
				9:[V2565<3] yes=15,no=16,missing=15
					15:[V3624<1] yes=21,no=22,missing=21
						21:[V3059<1] yes=25,no=26,missing=25
							25:[V4192<1] yes=29,no=30,missing=29
								29:[V3939<1] yes=33,no=34,missing=33
									33:[V4318<1] yes=37,no=38,missing=37
										37:[V1630<1] yes=41,no=42,missing=41
											41:[V3902<1] yes=45,no=46,missing=45
												45:leaf=-0.0455173142
												46:leaf=0.0243224408
											42:leaf=0.0451201126
										38:leaf=0.0471659303
									34:leaf=0.048222959
								30:[V476<1] yes=35,no=36,missing=35
									35:[V2756<1] yes=39,no=40,missing=39
										39:[V746<2] yes=43,no=44,missing=43
											43:[V258<1] yes=47,no=48,missing=47
												47:leaf=0.0387409665
												48:leaf=-0.00333152874
											44:leaf=0.0564388447
										40:leaf=-0.0233193003
									36:leaf=-0.0319046117
							26:[V228<1] yes=31,no=32,missing=31
								31:leaf=0.00766720064
								32:leaf=0.0563809462
						22:[V2943<1] yes=27,no=28,missing=27
							27:leaf=0.0616392046
							28:leaf=0.00166595099
					16:[V1230<1] yes=23,no=24,missing=23
						23:leaf=-0.00966097321
						24:leaf=0.0806607604
				10:[V3900<1] yes=17,no=18,missing=17
					17:leaf=0.0640791208
					18:leaf=-0.000610698713
			6:[V1190<2] yes=11,no=12,missing=11
				11:leaf=0.0640208796
				12:leaf=0.00499952491
		4:[V1101<1] yes=7,no=8,missing=7
			7:[V84<1] yes=13,no=14,missing=13
				13:[V791<1] yes=19,no=20,missing=19
					19:leaf=-0.0903672427
					20:leaf=-0.0237108413
				14:leaf=0.00851474982
			8:leaf=0.0167320967
	2:leaf=0.0739169493
booster[52]:
0:[V3359<1] yes=1,no=2,missing=1
	1:[V2686<1] yes=3,no=4,missing=3
		3:[V1886<1] yes=5,no=6,missing=5
			5:[V1446<3] yes=7,no=8,missing=7
				7:[V2275<1] yes=9,no=10,missing=9
					9:[V375<1] yes=13,no=14,missing=13
						13:[V592<1] yes=15,no=16,missing=15
							15:[V2411<1] yes=17,no=18,missing=17
								17:[V2651<1] yes=19,no=20,missing=19
									19:[V1264<4] yes=23,no=24,missing=23
										23:[V2113<1] yes=25,no=26,missing=25
											25:[V3455<1] yes=29,no=30,missing=29
												29:leaf=0.0486951433
												30:leaf=-0.0565195121
											26:[V2303<3] yes=31,no=32,missing=31
												31:leaf=-0.0580286235
												32:leaf=0.0135271074
										24:[V2880<1] yes=27,no=28,missing=27
											27:[V1264<5] yes=33,no=34,missing=33
												33:leaf=-0.0505225584
												34:leaf=0.00118076534
											28:leaf=0.0353937522
									20:leaf=-0.0562692508
								18:[V1230<1] yes=21,no=22,missing=21
									21:leaf=-0.0584226176
									22:leaf=0.0324663892
							16:leaf=-0.0604736395
						14:leaf=-0.0602615029
					10:leaf=-0.0651816279
				8:[V1670<1] yes=11,no=12,missing=11
					11:leaf=-0.0151766473
					12:leaf=-0.0712068081
			6:leaf=-0.0677229986
		4:leaf=-0.0792680979
	2:leaf=-0.0729379803
booster[53]:
0:[V2317<1] yes=1,no=2,missing=1
	1:[V2382<1] yes=3,no=4,missing=3
		3:[V882<1] yes=7,no=8,missing=7
			7:[V3736<1] yes=11,no=12,missing=11
				11:[V1886<1] yes=13,no=14,missing=13
					13:[V939<1] yes=17,no=18,missing=17
						17:[V1908<1] yes=21,no=22,missing=21
							21:[V4252<1] yes=23,no=24,missing=23
								23:[V4301<1] yes=25,no=26,missing=25
									25:[V564<1] yes=27,no=28,missing=27
										27:[V1670<1] yes=29,no=30,missing=29
											29:[V313<1] yes=33,no=34,missing=33
												33:leaf=0.00465522241
												34:leaf=-0.0560356714
											30:[V279<1] yes=35,no=36,missing=35
												35:leaf=0.0652256683
												36:leaf=-0.0141858794
										28:[V2060<2] yes=31,no=32,missing=31
											31:[V3038<1] yes=37,no=38,missing=37
												37:leaf=0.0711518824
												38:leaf=0.0118360789
											32:leaf=-0.00765298633
									26:leaf=-0.0647426993
								24:leaf=-0.0653792694
							22:leaf=-0.0682513341
						18:leaf=0.06845662
					14:leaf=-0.0733894482
				12:[V1264<2] yes=15,no=16,missing=15
					15:[V2776<1] yes=19,no=20,missing=19
						19:leaf=-0.0246780477
						20:leaf=-0.0912128314
					16:leaf=-0.0100483717
			8:leaf=-0.0748619661
		4:[V1230<1] yes=9,no=10,missing=9
			9:leaf=-0.0890409276
			10:leaf=0.0271063671
	2:[V3130<1] yes=5,no=6,missing=5
		5:leaf=0.0743339956
		6:leaf=0.0189136211
booster[54]:
0:[V3554<1] yes=1,no=2,missing=1
	1:[V618<1] yes=3,no=4,missing=3
		3:[V1378<1] yes=7,no=8,missing=7
			7:[V3902<1] yes=9,no=10,missing=9
				9:[V3218<1] yes=11,no=12,missing=11
					11:[V1481<1] yes=15,no=16,missing=15
						15:[V1599<1] yes=19,no=20,missing=19
							19:[V134<1] yes=21,no=22,missing=21
								21:[V2535<1] yes=23,no=24,missing=23
									23:[V1860<2] yes=25,no=26,missing=25
										25:[V613<1] yes=27,no=28,missing=27
											27:[V3015<1] yes=29,no=30,missing=29
												29:leaf=-0.03668008
												30:leaf=0.0371874273
											28:leaf=0.0497875474
										26:leaf=0.0593167581
									24:leaf=0.0591900311
								22:leaf=0.0610513277
							20:leaf=0.0542030707
						16:leaf=0.0525221117
					12:[V3123<1] yes=17,no=18,missing=17
						17:leaf=0.061385151
						18:leaf=0.0149698285
				10:[V392<1] yes=13,no=14,missing=13
					13:leaf=0.0595769286
					14:leaf=-0.00381442299
			8:leaf=-0.0834373683
		4:leaf=0.0641027391
	2:[V1866<1] yes=5,no=6,missing=5
		5:leaf=0.0658646673
		6:leaf=0.0115338974
booster[55]:
0:[V2078<1] yes=1,no=2,missing=1
	1:[V939<1] yes=3,no=4,missing=3
		3:[V2438<1] yes=7,no=8,missing=7
			7:[V1593<1] yes=9,no=10,missing=9
				9:[V288<1] yes=13,no=14,missing=13
					13:[V3010<1] yes=15,no=16,missing=15
						15:[V2284<1] yes=19,no=20,missing=19
							19:[V3436<1] yes=23,no=24,missing=23
								23:[V4301<1] yes=27,no=28,missing=27
									27:[V1136<1] yes=29,no=30,missing=29
										29:[V1264<1] yes=31,no=32,missing=31
											31:[V3921<1] yes=33,no=34,missing=33
												33:leaf=0.0466824658
												34:leaf=-0.0589888021
											32:[V3337<1] yes=35,no=36,missing=35
												35:leaf=0.00590314856
												36:leaf=-0.0645906702
										30:leaf=-0.0644936934
									28:leaf=-0.0616094694
								24:leaf=-0.0732762367
							20:[V3895<1] yes=25,no=26,missing=25
								25:leaf=0.0747197196
								26:leaf=0.00746341934
						16:leaf=0.0906351581
					14:[V412<1] yes=17,no=18,missing=17
						17:[V3123<1] yes=21,no=22,missing=21
							21:leaf=-0.0730490088
							22:leaf=0.00199158397
						18:leaf=0.0059508821
				10:leaf=-0.0726951063
			8:[V1373<1] yes=11,no=12,missing=11
				11:leaf=-0.0812429413
				12:leaf=-0.0200451501
		4:leaf=0.0854231268
	2:[V3814<1] yes=5,no=6,missing=5
		5:leaf=-0.0821097121
		6:leaf=0.0230585113
booster[56]:
0:[V662<1] yes=1,no=2,missing=1
	1:[V3231<1] yes=3,no=4,missing=3
		3:[V2760<1] yes=7,no=8,missing=7
			7:[V288<1] yes=11,no=12,missing=11
				11:[V987<1] yes=17,no=18,missing=17
					17:[V2502<1] yes=23,no=24,missing=23
						23:[V4181<1] yes=27,no=28,missing=27
							27:[V1723<1] yes=31,no=32,missing=31
								31:[V862<1] yes=33,no=34,missing=33
									33:[V392<1] yes=35,no=36,missing=35
										35:[V412<1] yes=37,no=38,missing=37
											37:[V2565<2] yes=41,no=42,missing=41
												41:leaf=-0.0108243367
												42:leaf=0.0433029421
											38:[V2943<1] yes=43,no=44,missing=43
												43:leaf=-0.0699250624
												44:leaf=-0.02176545
										36:[V1111<1] yes=39,no=40,missing=39
											39:[V2431<2] yes=45,no=46,missing=45
												45:leaf=-0.0667393208
												46:leaf=-0.00709159719
											40:leaf=0.0130208349
									34:leaf=0.0467033014
								32:leaf=0.0404203534
							28:leaf=0.0648864135
						24:leaf=0.0732459426
					18:[V258<1] yes=25,no=26,missing=25
						25:leaf=0.0561273769
						26:[V2943<1] yes=29,no=30,missing=29
							29:leaf=-0.00764334667
							30:leaf=0.0370028354
				12:[V242<1] yes=19,no=20,missing=19
					19:leaf=-0.0685934722
					20:leaf=-0.00252624834
			8:[V258<1] yes=13,no=14,missing=13
				13:leaf=0.0772226378
				14:leaf=0.0208055712
		4:[V414<1] yes=9,no=10,missing=9
			9:[V3786<1] yes=15,no=16,missing=15
				15:[V2565<1] yes=21,no=22,missing=21
					21:leaf=-0.0772044808
					22:leaf=-0.0138149234
				16:leaf=-0.0222998559
			10:leaf=0.000567014271
	2:[V4295<2] yes=5,no=6,missing=5
		5:leaf=0.0609327033
		6:leaf=0.0034822782
booster[57]:
0:[V4065<1] yes=1,no=2,missing=1
	1:[V2613<1] yes=3,no=4,missing=3
		3:[V2098<1] yes=5,no=6,missing=5
			5:[V4193<1] yes=7,no=8,missing=7
				7:[V1437<1] yes=11,no=12,missing=11
					11:[V4129<1] yes=17,no=18,missing=17
						17:[V2078<1] yes=23,no=24,missing=23
							23:[V1264<3] yes=29,no=30,missing=29
								29:[V3428<1] yes=31,no=32,missing=31
									31:[V3736<1] yes=35,no=36,missing=35
										35:[V1899<1] yes=39,no=40,missing=39
											39:[V609<1] yes=43,no=44,missing=43
												43:leaf=0.0490146317
												44:leaf=-0.0304658245
											40:leaf=-0.029866796
										36:leaf=-0.0369654372
									32:leaf=-0.0361566693
								30:[V4295<2] yes=33,no=34,missing=33
									33:[V3381<2] yes=37,no=38,missing=37
										37:[V3232<1] yes=41,no=42,missing=41
											41:leaf=0.0373129398
											42:leaf=0.0051715076
										38:leaf=-0.028712796
									34:leaf=-0.0586466193
							24:leaf=-0.0613970011
						18:leaf=-0.0764217153
					12:[V2617<1] yes=19,no=20,missing=19
						19:[V1140<1] yes=25,no=26,missing=25
							25:leaf=0.0934983343
							26:leaf=0.0151202595
						20:[V1670<1] yes=27,no=28,missing=27
							27:leaf=-0.0607357919
							28:leaf=0.0161251836
				8:[V4193<2] yes=13,no=14,missing=13
					13:leaf=-0.0648245886
					14:leaf=0.00840876531
			6:[V1405<1] yes=9,no=10,missing=9
				9:[V2840<1] yes=15,no=16,missing=15
					15:[V1264<2] yes=21,no=22,missing=21
						21:leaf=-0.0167605933
						22:leaf=-0.0698010325
					16:leaf=-0.001422439
				10:leaf=0.0361391827
		4:leaf=-0.0744639263
	2:leaf=-0.083258912
booster[58]:
0:[V3091<1] yes=1,no=2,missing=1
	1:[V2060<1] yes=3,no=4,missing=3
		3:[V398<1] yes=5,no=6,missing=5
			5:[V3027<1] yes=9,no=10,missing=9
				9:[V564<1] yes=13,no=14,missing=13
					13:[V969<1] yes=15,no=16,missing=15
						15:[V3236<1] yes=19,no=20,missing=19
							19:[V1866<1] yes=25,no=26,missing=25
								25:[V2979<1] yes=31,no=32,missing=31
									31:[V3921<1] yes=35,no=36,missing=35
										35:[V2382<1] yes=37,no=38,missing=37
											37:[V3736<1] yes=39,no=40,missing=39
												39:leaf=0.039953772
												40:leaf=-0.0190745536
											38:[V2565<1] yes=41,no=42,missing=41
												41:leaf=-0.0725040808
												42:leaf=0.0268601011
										36:leaf=-0.0373821594
									32:leaf=-0.0411966108
								26:[V2565<2] yes=33,no=34,missing=33
									33:leaf=-0.000896555139
									34:leaf=-0.0545758009
							20:[V2431<1] yes=27,no=28,missing=27
								27:leaf=-0.0625585765
								28:leaf=-0.00739280088
						16:[V2565<1] yes=21,no=22,missing=21
							21:leaf=-0.0719016269
							22:leaf=-0.0184725653
					14:[V1446<1] yes=17,no=18,missing=17
						17:[V55<1] yes=23,no=24,missing=23
							23:[V2098<1] yes=29,no=30,missing=29
								29:leaf=0.0894616768
								30:leaf=0.0131272087
							24:leaf=-0.00595034333
						18:leaf=-0.00777606433
				10:leaf=-0.0727281719
			6:leaf=-0.0622005276
		4:[V3232<1] yes=7,no=8,missing=7
			7:[V975<1] yes=11,no=12,missing=11
				11:leaf=-0.072994791
				12:leaf=-0.018939117
			8:leaf=-0.00360346772
	2:leaf=-0.0815961957
booster[59]:
0:[V4279<1] yes=1,no=2,missing=1
	1:[V419<1] yes=3,no=4,missing=3
		3:[V4301<1] yes=5,no=6,missing=5
			5:[V2770<1] yes=7,no=8,missing=7
				7:[V467<1] yes=9,no=10,missing=9
					9:[V675<1] yes=11,no=12,missing=11
						11:[V2411<1] yes=13,no=14,missing=13
							13:[V2113<1] yes=17,no=18,missing=17
								17:[V2098<1] yes=21,no=22,missing=21
									21:[V1798<1] yes=25,no=26,missing=25
										25:[V2472<1] yes=31,no=32,missing=31
											31:[V4040<1] yes=35,no=36,missing=35
												35:leaf=0.0252007898
												36:leaf=-0.0610544235
											32:leaf=-0.0619402453
										26:leaf=-0.0562127046
									22:[V1396<1] yes=27,no=28,missing=27
										27:leaf=-0.0606925972
										28:leaf=-0.00762710348
								18:leaf=-0.0756429881
							14:leaf=-0.0866357014
						12:[V2001<1] yes=15,no=16,missing=15
							15:[V3321<1] yes=19,no=20,missing=19
								19:[V1594<1] yes=23,no=24,missing=23
									23:[V3463<1] yes=29,no=30,missing=29
										29:[V4056<1] yes=33,no=34,missing=33
											33:[V2314<1] yes=37,no=38,missing=37
												37:leaf=0.0780247673
												38:leaf=0.00775023503
											34:[V3895<1] yes=39,no=40,missing=39
												39:leaf=-0.0108417645
												40:leaf=0.00553465215
										30:leaf=-0.0262121279
									24:leaf=-0.0461056605
								20:leaf=-0.0296933614
							16:leaf=-0.0466585942
					10:leaf=0.0662661791
				8:leaf=0.0695638433
			6:leaf=-0.0701242313
		4:leaf=-0.0725932717
	2:leaf=-0.0772114694
booster[60]:
0:[V2851<1] yes=1,no=2,missing=1
	1:[V2636<1] yes=3,no=4,missing=3
		3:[V134<1] yes=7,no=8,missing=7
			7:[V3442<1] yes=11,no=12,missing=11
				11:[V3015<1] yes=15,no=16,missing=15
					15:[V939<1] yes=19,no=20,missing=19
						19:[V2642<1] yes=23,no=24,missing=23
							23:[V293<1] yes=25,no=26,missing=25
								25:[V3900<1] yes=27,no=28,missing=27
									27:[V873<1] yes=29,no=30,missing=29
										29:[V2770<1] yes=33,no=34,missing=33
											33:[V2060<1] yes=39,no=40,missing=39
												39:leaf=-0.0210989024
												40:leaf=-0.0727999657
											34:leaf=0.0470277369
										30:[V3992<1] yes=35,no=36,missing=35
											35:leaf=0.056236241
											36:leaf=-0.0260118172
									28:[V3626<1] yes=31,no=32,missing=31
										31:[V3463<1] yes=37,no=38,missing=37
											37:leaf=-0.092299819
											38:leaf=-0.00941605587
										32:leaf=0.00739077898
								26:leaf=0.0443885885
							24:leaf=-0.0903763473
						20:leaf=0.0323063061
					16:leaf=0.0539839007
				12:leaf=0.0589220189
			8:leaf=0.0658654794
		4:[V1437<1] yes=9,no=10,missing=9
			9:[V3167<1] yes=13,no=14,missing=13
				13:[V258<1] yes=17,no=18,missing=17
					17:leaf=0.000463257456
					18:[V3232<1] yes=21,no=22,missing=21
						21:leaf=0.0439688303
						22:leaf=-0.00739560556
				14:leaf=-0.022017803
			10:leaf=0.0700573027
	2:[V2095<1] yes=5,no=6,missing=5
		5:leaf=0.0615960695
		6:leaf=0.0139996754
booster[61]:
0:[V2284<1] yes=1,no=2,missing=1
	1:[V543<1] yes=3,no=4,missing=3
		3:[V4074<1] yes=7,no=8,missing=7
			7:[V288<1] yes=11,no=12,missing=11
				11:[V3089<1] yes=15,no=16,missing=15
					15:[V2880<1] yes=21,no=22,missing=21
						21:[V1798<1] yes=23,no=24,missing=23
							23:[V2060<1] yes=27,no=28,missing=27
								27:[V3140<1] yes=31,no=32,missing=31
									31:[V969<1] yes=33,no=34,missing=33
										33:[V3707<1] yes=35,no=36,missing=35
											35:[V398<1] yes=37,no=38,missing=37
												37:leaf=0.0210974235
												38:leaf=-0.0504796654
											36:leaf=-0.0653077215
										34:leaf=-0.0603156574
									32:leaf=-0.0632873774
								28:leaf=-0.05633213
							24:leaf=-0.0762966052
						22:[V1728<1] yes=25,no=26,missing=25
							25:[V242<1] yes=29,no=30,missing=29
								29:leaf=0.0591890812
								30:leaf=0.00187537039
							26:leaf=-0.0119346455
					16:leaf=-0.0705030188
				12:[V4270<1] yes=17,no=18,missing=17
					17:leaf=-0.0752092004
					18:leaf=-0.00295984023
			8:[V3624<1] yes=13,no=14,missing=13
				13:[V1264<1] yes=19,no=20,missing=19
					19:leaf=-0.007576467
					20:leaf=-0.0732794851
				14:leaf=0.00903672911
		4:[V2923<1] yes=9,no=10,missing=9
			9:leaf=0.070098117
			10:leaf=0.0114905583
	2:[V258<1] yes=5,no=6,missing=5
		5:leaf=0.0867907405
		6:leaf=0.0170503147
booster[62]:
0:[V3430<1] yes=1,no=2,missing=1
	1:[V2284<1] yes=3,no=4,missing=3
		3:[V2044<1] yes=7,no=8,missing=7
			7:[V1899<1] yes=13,no=14,missing=13
				13:[V3817<1] yes=17,no=18,missing=17
					17:[V3428<2] yes=19,no=20,missing=19
						19:[V4074<1] yes=23,no=24,missing=23
							23:[V987<1] yes=27,no=28,missing=27
								27:[V892<1] yes=31,no=32,missing=31
									31:[V2713<1] yes=35,no=36,missing=35
										35:[V1396<2] yes=41,no=42,missing=41
											41:[V2770<1] yes=43,no=44,missing=43
												43:leaf=-0.0286652781
												44:leaf=0.0412253067
											42:leaf=0.0367370024
										36:leaf=0.0532785319
									32:[V2972<1] yes=37,no=38,missing=37
										37:leaf=0.0646782741
										38:leaf=-0.0195115693
								28:[V1264<3] yes=33,no=34,missing=33
									33:[V1264<2] yes=39,no=40,missing=39
										39:leaf=0.0718654022
										40:leaf=0.019006053
									34:leaf=-0.00969265308
							24:[V746<1] yes=29,no=30,missing=29
								29:leaf=-0.0847749263
								30:leaf=-0.000233683779
						20:leaf=0.0684138983
					18:[V2167<1] yes=21,no=22,missing=21
						21:[V3900<1] yes=25,no=26,missing=25
							25:leaf=0.0676829144
							26:leaf=-0.00343978498
						22:leaf=-0.0150896972
